Language model created by QuickLM on Sun Dec 20 08:05:17 EST 2020
Copyright (c) 1996-2010 Carnegie Mellon University and Alexander I. Rudnicky

The model is in standard ARPA format, designed by Doug Paul while he was at MITRE.

The code that was used to produce this language model is available in Open Source.
Please visit http://www.speech.cs.cmu.edu/tools/ for more information

The (fixed) discount mass is 0.5. The backoffs are computed using the ratio method.
This model based on a corpus of 60 sentences and 13 words

\data\
ngram 1=13
ngram 2=36
ngram 3=60

\1-grams:
-1.0840 </s> -0.3010
-1.0840 <s> -0.2505
-1.6069 BOTTOM -0.2396
-2.0840 CENTER -0.2637
-1.3850 CIRCLE -0.2199
-1.3850 CROSS -0.2199
-1.2601 IN -0.2765
-1.6069 LEFT -0.2637
-2.0840 MIDDLE -0.2637
-1.5611 PLACE -0.2637
-1.6069 RIGHT -0.2637
-1.2601 THE -0.2478
-1.6069 TOP -0.2396

\2-grams:
-0.7782 <s> CIRCLE 0.0000
-0.7782 <s> CROSS 0.0000
-0.7782 <s> PLACE 0.0000
-0.7782 BOTTOM </s> -0.3010
-0.7782 BOTTOM LEFT 0.0000
-0.7782 BOTTOM RIGHT 0.0000
-0.3010 CENTER </s> -0.3010
-1.3010 CIRCLE BOTTOM 0.0000
-1.7782 CIRCLE CENTER 0.0000
-0.4771 CIRCLE IN 0.0000
-1.7782 CIRCLE LEFT 0.0000
-1.7782 CIRCLE MIDDLE 0.0000
-1.7782 CIRCLE RIGHT 0.0000
-1.3010 CIRCLE TOP 0.0000
-1.3010 CROSS BOTTOM 0.0000
-1.7782 CROSS CENTER 0.0000
-0.4771 CROSS IN 0.0000
-1.7782 CROSS LEFT 0.0000
-1.7782 CROSS MIDDLE 0.0000
-1.7782 CROSS RIGHT 0.0000
-1.3010 CROSS TOP 0.0000
-0.3010 IN THE 0.0000
-0.3010 LEFT </s> -0.3010
-0.3010 MIDDLE </s> -0.3010
-0.6021 PLACE CIRCLE -0.1249
-0.6021 PLACE CROSS -0.1249
-0.3010 RIGHT </s> -0.3010
-0.8239 THE BOTTOM 0.0000
-1.3010 THE CENTER 0.0000
-1.3010 THE LEFT 0.0000
-1.3010 THE MIDDLE 0.0000
-1.3010 THE RIGHT 0.0000
-0.8239 THE TOP 0.0000
-0.7782 TOP </s> -0.3010
-0.7782 TOP LEFT 0.0000
-0.7782 TOP RIGHT 0.0000

\3-grams:
-1.1249 <s> CIRCLE BOTTOM
-1.6021 <s> CIRCLE CENTER
-0.6021 <s> CIRCLE IN
-1.6021 <s> CIRCLE LEFT
-1.6021 <s> CIRCLE MIDDLE
-1.6021 <s> CIRCLE RIGHT
-1.1249 <s> CIRCLE TOP
-1.1249 <s> CROSS BOTTOM
-1.6021 <s> CROSS CENTER
-0.6021 <s> CROSS IN
-1.6021 <s> CROSS LEFT
-1.6021 <s> CROSS MIDDLE
-1.6021 <s> CROSS RIGHT
-1.1249 <s> CROSS TOP
-0.6021 <s> PLACE CIRCLE
-0.6021 <s> PLACE CROSS
-0.3010 BOTTOM LEFT </s>
-0.3010 BOTTOM RIGHT </s>
-0.7782 CIRCLE BOTTOM </s>
-0.7782 CIRCLE BOTTOM LEFT
-0.7782 CIRCLE BOTTOM RIGHT
-0.3010 CIRCLE CENTER </s>
-0.3010 CIRCLE IN THE
-0.3010 CIRCLE LEFT </s>
-0.3010 CIRCLE MIDDLE </s>
-0.3010 CIRCLE RIGHT </s>
-0.7782 CIRCLE TOP </s>
-0.7782 CIRCLE TOP LEFT
-0.7782 CIRCLE TOP RIGHT
-0.7782 CROSS BOTTOM </s>
-0.7782 CROSS BOTTOM LEFT
-0.7782 CROSS BOTTOM RIGHT
-0.3010 CROSS CENTER </s>
-0.3010 CROSS IN THE
-0.3010 CROSS LEFT </s>
-0.3010 CROSS MIDDLE </s>
-0.3010 CROSS RIGHT </s>
-0.7782 CROSS TOP </s>
-0.7782 CROSS TOP LEFT
-0.7782 CROSS TOP RIGHT
-0.8239 IN THE BOTTOM
-1.3010 IN THE CENTER
-1.3010 IN THE LEFT
-1.3010 IN THE MIDDLE
-1.3010 IN THE RIGHT
-0.8239 IN THE TOP
-0.3010 PLACE CIRCLE IN
-0.3010 PLACE CROSS IN
-0.7782 THE BOTTOM </s>
-0.7782 THE BOTTOM LEFT
-0.7782 THE BOTTOM RIGHT
-0.3010 THE CENTER </s>
-0.3010 THE LEFT </s>
-0.3010 THE MIDDLE </s>
-0.3010 THE RIGHT </s>
-0.7782 THE TOP </s>
-0.7782 THE TOP LEFT
-0.7782 THE TOP RIGHT
-0.3010 TOP LEFT </s>
-0.3010 TOP RIGHT </s>

\end\
