Language model created by QuickLM on Thu Sep 10 10:14:28 EDT 2020
Copyright (c) 1996-2010 Carnegie Mellon University and Alexander I. Rudnicky

The model is in standard ARPA format, designed by Doug Paul while he was at MITRE.

The code that was used to produce this language model is available in Open Source.
Please visit http://www.speech.cs.cmu.edu/tools/ for more information

The (fixed) discount mass is 0.5. The backoffs are computed using the ratio method.
This model based on a corpus of 378242 sentences and 31 words

\data\
ngram 1=31
ngram 2=375
ngram 3=3358

\1-grams:
-1.1835 </s> -0.3010
-1.1835 <s> -0.2183
-1.8690 ALPHA -0.1783
-1.7869 BISHOP -0.1301
-1.8690 BRAVO -0.1783
-1.6599 CAPTURES -0.2513
-6.4602 CASTLING -0.2716
-1.8690 CHARLIE -0.1783
-1.6664 CHECK -0.2716
-1.6664 CHECKMATE -0.2716
-1.8690 DELTA -0.1783
-1.8690 ECHO -0.1783
-1.8718 EIGHT -0.1693
-1.8718 FIVE -0.1693
-1.8718 FOUR -0.1693
-1.8690 FOXTROT -0.1783
-1.8690 GOLF -0.1783
-1.8690 HOTEL -0.1783
-4.4779 KING -0.2293
-6.7612 KINGSIDE -0.3010
-1.7869 KNIGHT -0.1301
-1.8718 ONE -0.1693
-3.1769 PROMOTE -0.2913
-1.7869 QUEEN -0.1301
-6.7612 QUEENSIDE -0.3010
-1.7869 ROOK -0.1301
-1.8718 SEVEN -0.1693
-1.8718 SIX -0.1693
-1.8718 THREE -0.1693
-1.6529 TO -0.2183
-1.8718 TWO -0.1693

\2-grams:
-3.1006 <s> ALPHA -0.0289
-0.9089 <s> BISHOP -0.0044
-3.1006 <s> BRAVO -0.0289
-3.1006 <s> CHARLIE -0.0289
-3.1006 <s> DELTA -0.0289
-3.1006 <s> ECHO -0.0289
-3.1006 <s> FOXTROT -0.0289
-3.1006 <s> GOLF -0.0289
-3.1006 <s> HOTEL -0.0289
-3.5955 <s> KING -0.0000
-5.8788 <s> KINGSIDE 0.0000
-0.9089 <s> KNIGHT -0.0044
-0.9089 <s> QUEEN -0.0044
-5.8788 <s> QUEENSIDE 0.0000
-0.9089 <s> ROOK -0.0044
-2.2858 ALPHA BRAVO -0.0839
-1.4451 ALPHA CAPTURES 0.0000
-2.2858 ALPHA CHARLIE -0.0839
-2.2858 ALPHA DELTA -0.0839
-2.2858 ALPHA ECHO -0.0839
-1.3082 ALPHA EIGHT -0.0070
-1.3082 ALPHA FIVE -0.0070
-1.3082 ALPHA FOUR -0.0070
-2.2858 ALPHA FOXTROT -0.0839
-2.2858 ALPHA GOLF -0.0839
-2.2858 ALPHA HOTEL -0.0839
-1.3082 ALPHA ONE -0.0070
-1.3082 ALPHA SEVEN -0.0070
-1.3082 ALPHA SIX -0.0070
-1.3082 ALPHA THREE -0.0070
-1.4628 ALPHA TO -0.0611
-1.3082 ALPHA TWO -0.0070
-2.2931 BISHOP </s> -0.3010
-1.3955 BISHOP ALPHA -0.0000
-1.3955 BISHOP BRAVO 0.0000
-2.9921 BISHOP CAPTURES 0.0000
-1.3955 BISHOP CHARLIE -0.0000
-1.3955 BISHOP DELTA -0.0000
-1.3955 BISHOP ECHO -0.0000
-1.6699 BISHOP EIGHT -0.2068
-1.6699 BISHOP FIVE -0.2068
-1.6699 BISHOP FOUR -0.2068
-1.3955 BISHOP FOXTROT -0.0000
-1.3955 BISHOP GOLF -0.0000
-1.3955 BISHOP HOTEL -0.0000
-1.6699 BISHOP ONE -0.2068
-1.6699 BISHOP SEVEN -0.2068
-1.6699 BISHOP SIX -0.2068
-1.6699 BISHOP THREE -0.2068
-2.9921 BISHOP TO -0.0128
-1.6699 BISHOP TWO -0.2068
-2.2858 BRAVO ALPHA -0.0839
-1.4451 BRAVO CAPTURES 0.0000
-2.2858 BRAVO CHARLIE -0.0839
-2.2858 BRAVO DELTA -0.0839
-2.2858 BRAVO ECHO -0.0839
-1.3082 BRAVO EIGHT -0.0070
-1.3082 BRAVO FIVE -0.0070
-1.3082 BRAVO FOUR -0.0070
-2.2858 BRAVO FOXTROT -0.0839
-2.2858 BRAVO GOLF -0.0839
-2.2858 BRAVO HOTEL -0.0839
-1.3082 BRAVO ONE -0.0070
-1.3082 BRAVO SEVEN -0.0070
-1.3082 BRAVO SIX -0.0070
-1.3082 BRAVO THREE -0.0070
-1.4628 BRAVO TO -0.0611
-1.3082 BRAVO TWO -0.0070
-1.2041 CAPTURES ALPHA -0.0839
-1.2041 CAPTURES BRAVO -0.0839
-1.2041 CAPTURES CHARLIE -0.0839
-1.2041 CAPTURES DELTA -0.0839
-1.2041 CAPTURES ECHO -0.0839
-1.2041 CAPTURES FOXTROT -0.0839
-1.2041 CAPTURES GOLF -0.0839
-1.2041 CAPTURES HOTEL -0.0839
-0.3010 CASTLING </s> -0.3010
-2.2858 CHARLIE ALPHA -0.0839
-2.2858 CHARLIE BRAVO -0.0839
-1.4451 CHARLIE CAPTURES 0.0000
-2.2858 CHARLIE DELTA -0.0839
-2.2858 CHARLIE ECHO -0.0839
-1.3082 CHARLIE EIGHT -0.0070
-1.3082 CHARLIE FIVE -0.0070
-1.3082 CHARLIE FOUR -0.0070
-2.2858 CHARLIE FOXTROT -0.0839
-2.2858 CHARLIE GOLF -0.0839
-2.2858 CHARLIE HOTEL -0.0839
-1.3082 CHARLIE ONE -0.0070
-1.3082 CHARLIE SEVEN -0.0070
-1.3082 CHARLIE SIX -0.0070
-1.3082 CHARLIE THREE -0.0070
-1.4628 CHARLIE TO -0.0611
-1.3082 CHARLIE TWO -0.0070
-0.3010 CHECK </s> -0.3010
-0.3010 CHECKMATE </s> -0.3010
-2.2858 DELTA ALPHA -0.0839
-2.2858 DELTA BRAVO -0.0839
-1.4451 DELTA CAPTURES 0.0000
-2.2858 DELTA CHARLIE -0.0839
-2.2858 DELTA ECHO -0.0839
-1.3082 DELTA EIGHT -0.0070
-1.3082 DELTA FIVE -0.0070
-1.3082 DELTA FOUR -0.0070
-2.2858 DELTA FOXTROT -0.0839
-2.2858 DELTA GOLF -0.0839
-2.2858 DELTA HOTEL -0.0839
-1.3082 DELTA ONE -0.0070
-1.3082 DELTA SEVEN -0.0070
-1.3082 DELTA SIX -0.0070
-1.3082 DELTA THREE -0.0070
-1.4628 DELTA TO -0.0611
-1.3082 DELTA TWO -0.0070
-2.2858 ECHO ALPHA -0.0839
-2.2858 ECHO BRAVO -0.0839
-1.4451 ECHO CAPTURES 0.0000
-2.2858 ECHO CHARLIE -0.0839
-2.2858 ECHO DELTA -0.0839
-1.3082 ECHO EIGHT -0.0070
-1.3082 ECHO FIVE -0.0070
-1.3082 ECHO FOUR -0.0070
-2.2858 ECHO FOXTROT -0.0839
-2.2858 ECHO GOLF -0.0839
-2.2858 ECHO HOTEL -0.0839
-1.3082 ECHO ONE -0.0070
-1.3082 ECHO SEVEN -0.0070
-1.3082 ECHO SIX -0.0070
-1.3082 ECHO THREE -0.0070
-1.4628 ECHO TO -0.0611
-1.3082 ECHO TWO -0.0070
-0.9947 EIGHT </s> -0.3010
-2.0901 EIGHT ALPHA -0.1178
-2.0901 EIGHT BRAVO -0.1178
-1.1870 EIGHT CAPTURES 0.0000
-2.0901 EIGHT CHARLIE -0.1178
-0.9987 EIGHT CHECK 0.0000
-0.9987 EIGHT CHECKMATE 0.0000
-2.0901 EIGHT DELTA -0.1178
-2.0901 EIGHT ECHO -0.1178
-2.0901 EIGHT FOXTROT -0.1178
-2.0901 EIGHT GOLF -0.1178
-2.0901 EIGHT HOTEL -0.1178
-2.5092 EIGHT PROMOTE 0.0000
-1.1870 EIGHT TO -0.0128
-0.9947 FIVE </s> -0.3010
-2.0901 FIVE ALPHA -0.1178
-2.0901 FIVE BRAVO -0.1178
-1.1870 FIVE CAPTURES 0.0000
-2.0901 FIVE CHARLIE -0.1178
-0.9987 FIVE CHECK 0.0000
-0.9987 FIVE CHECKMATE 0.0000
-2.0901 FIVE DELTA -0.1178
-2.0901 FIVE ECHO -0.1178
-2.0901 FIVE FOXTROT -0.1178
-2.0901 FIVE GOLF -0.1178
-2.0901 FIVE HOTEL -0.1178
-2.5092 FIVE PROMOTE 0.0000
-1.1870 FIVE TO -0.0128
-0.9947 FOUR </s> -0.3010
-2.0901 FOUR ALPHA -0.1178
-2.0901 FOUR BRAVO -0.1178
-1.1870 FOUR CAPTURES 0.0000
-2.0901 FOUR CHARLIE -0.1178
-0.9987 FOUR CHECK 0.0000
-0.9987 FOUR CHECKMATE 0.0000
-2.0901 FOUR DELTA -0.1178
-2.0901 FOUR ECHO -0.1178
-2.0901 FOUR FOXTROT -0.1178
-2.0901 FOUR GOLF -0.1178
-2.0901 FOUR HOTEL -0.1178
-2.5092 FOUR PROMOTE 0.0000
-1.1870 FOUR TO -0.0128
-2.2858 FOXTROT ALPHA -0.0839
-2.2858 FOXTROT BRAVO -0.0839
-1.4451 FOXTROT CAPTURES 0.0000
-2.2858 FOXTROT CHARLIE -0.0839
-2.2858 FOXTROT DELTA -0.0839
-2.2858 FOXTROT ECHO -0.0839
-1.3082 FOXTROT EIGHT -0.0070
-1.3082 FOXTROT FIVE -0.0070
-1.3082 FOXTROT FOUR -0.0070
-2.2858 FOXTROT GOLF -0.0839
-2.2858 FOXTROT HOTEL -0.0839
-1.3082 FOXTROT ONE -0.0070
-1.3082 FOXTROT SEVEN -0.0070
-1.3082 FOXTROT SIX -0.0070
-1.3082 FOXTROT THREE -0.0070
-1.4628 FOXTROT TO -0.0611
-1.3082 FOXTROT TWO -0.0070
-2.2858 GOLF ALPHA -0.0839
-2.2858 GOLF BRAVO -0.0839
-1.4451 GOLF CAPTURES 0.0000
-2.2858 GOLF CHARLIE -0.0839
-2.2858 GOLF DELTA -0.0839
-2.2858 GOLF ECHO -0.0839
-1.3082 GOLF EIGHT -0.0070
-1.3082 GOLF FIVE -0.0070
-1.3082 GOLF FOUR -0.0070
-2.2858 GOLF FOXTROT -0.0839
-2.2858 GOLF HOTEL -0.0839
-1.3082 GOLF ONE -0.0070
-1.3082 GOLF SEVEN -0.0070
-1.3082 GOLF SIX -0.0070
-1.3082 GOLF THREE -0.0070
-1.4628 GOLF TO -0.0611
-1.3082 GOLF TWO -0.0070
-2.2858 HOTEL ALPHA -0.0839
-2.2858 HOTEL BRAVO -0.0839
-1.4451 HOTEL CAPTURES 0.0000
-2.2858 HOTEL CHARLIE -0.0839
-2.2858 HOTEL DELTA -0.0839
-2.2858 HOTEL ECHO -0.0839
-1.3082 HOTEL EIGHT -0.0070
-1.3082 HOTEL FIVE -0.0070
-1.3082 HOTEL FOUR -0.0070
-2.2858 HOTEL FOXTROT -0.0839
-2.2858 HOTEL GOLF -0.0839
-1.3082 HOTEL ONE -0.0070
-1.3082 HOTEL SEVEN -0.0070
-1.3082 HOTEL SIX -0.0070
-1.3082 HOTEL THREE -0.0070
-1.4628 HOTEL TO -0.0611
-1.3082 HOTEL TWO -0.0070
-1.6812 KING ALPHA -0.0839
-1.6812 KING BRAVO -0.0839
-0.7782 KING CAPTURES 0.0000
-1.6812 KING CHARLIE -0.0839
-1.6812 KING DELTA -0.0839
-1.6812 KING ECHO -0.0839
-1.6812 KING FOXTROT -0.0839
-1.6812 KING GOLF -0.0839
-1.6812 KING HOTEL -0.0839
-0.7782 KING TO -0.0128
-0.3010 KINGSIDE CASTLING 0.0000
-2.2931 KNIGHT </s> -0.3010
-1.3955 KNIGHT ALPHA -0.0000
-1.3955 KNIGHT BRAVO -0.0000
-2.9921 KNIGHT CAPTURES 0.0000
-1.3955 KNIGHT CHARLIE -0.0000
-1.3955 KNIGHT DELTA 0.0000
-1.3955 KNIGHT ECHO -0.0000
-1.6699 KNIGHT EIGHT -0.2068
-1.6699 KNIGHT FIVE -0.2068
-1.6699 KNIGHT FOUR -0.2068
-1.3955 KNIGHT FOXTROT -0.0000
-1.3955 KNIGHT GOLF -0.0000
-1.3955 KNIGHT HOTEL 0.0000
-1.6699 KNIGHT ONE -0.2068
-1.6699 KNIGHT SEVEN -0.2068
-1.6699 KNIGHT SIX -0.2068
-1.6699 KNIGHT THREE -0.2068
-2.9921 KNIGHT TO -0.0128
-1.6699 KNIGHT TWO -0.2068
-0.9947 ONE </s> -0.3010
-2.0901 ONE ALPHA -0.1178
-2.0901 ONE BRAVO -0.1178
-1.1870 ONE CAPTURES 0.0000
-2.0901 ONE CHARLIE -0.1178
-0.9987 ONE CHECK 0.0000
-0.9987 ONE CHECKMATE 0.0000
-2.0901 ONE DELTA -0.1178
-2.0901 ONE ECHO -0.1178
-2.0901 ONE FOXTROT -0.1178
-2.0901 ONE GOLF -0.1178
-2.0901 ONE HOTEL -0.1178
-2.5092 ONE PROMOTE 0.0000
-1.1870 ONE TO -0.0128
-0.3010 PROMOTE TO -0.2945
-2.2931 QUEEN </s> -0.3010
-1.3955 QUEEN ALPHA -0.0000
-1.3955 QUEEN BRAVO -0.0000
-2.9921 QUEEN CAPTURES 0.0000
-1.3955 QUEEN CHARLIE -0.0000
-1.3955 QUEEN DELTA -0.0000
-1.3955 QUEEN ECHO -0.0000
-1.6699 QUEEN EIGHT -0.2068
-1.6699 QUEEN FIVE -0.2068
-1.6699 QUEEN FOUR -0.2068
-1.3955 QUEEN FOXTROT -0.0000
-1.3955 QUEEN GOLF -0.0000
-1.3955 QUEEN HOTEL 0.0000
-1.6699 QUEEN ONE -0.2068
-1.6699 QUEEN SEVEN -0.2068
-1.6699 QUEEN SIX -0.2068
-1.6699 QUEEN THREE -0.2068
-2.9921 QUEEN TO -0.0128
-1.6699 QUEEN TWO -0.2068
-0.3010 QUEENSIDE CASTLING 0.0000
-2.2931 ROOK </s> -0.3010
-1.3955 ROOK ALPHA -0.0000
-1.3955 ROOK BRAVO 0.0000
-2.9921 ROOK CAPTURES 0.0000
-1.3955 ROOK CHARLIE 0.0000
-1.3955 ROOK DELTA -0.0000
-1.3955 ROOK ECHO 0.0000
-1.6699 ROOK EIGHT -0.2068
-1.6699 ROOK FIVE -0.2068
-1.6699 ROOK FOUR -0.2068
-1.3955 ROOK FOXTROT 0.0000
-1.3955 ROOK GOLF -0.0000
-1.3955 ROOK HOTEL -0.0000
-1.6699 ROOK ONE -0.2068
-1.6699 ROOK SEVEN -0.2068
-1.6699 ROOK SIX -0.2068
-1.6699 ROOK THREE -0.2068
-2.9921 ROOK TO -0.0128
-1.6699 ROOK TWO -0.2068
-0.9947 SEVEN </s> -0.3010
-2.0901 SEVEN ALPHA -0.1178
-2.0901 SEVEN BRAVO -0.1178
-1.1870 SEVEN CAPTURES 0.0000
-2.0901 SEVEN CHARLIE -0.1178
-0.9987 SEVEN CHECK 0.0000
-0.9987 SEVEN CHECKMATE 0.0000
-2.0901 SEVEN DELTA -0.1178
-2.0901 SEVEN ECHO -0.1178
-2.0901 SEVEN FOXTROT -0.1178
-2.0901 SEVEN GOLF -0.1178
-2.0901 SEVEN HOTEL -0.1178
-2.5092 SEVEN PROMOTE 0.0000
-1.1870 SEVEN TO -0.0128
-0.9947 SIX </s> -0.3010
-2.0901 SIX ALPHA -0.1178
-2.0901 SIX BRAVO -0.1178
-1.1870 SIX CAPTURES 0.0000
-2.0901 SIX CHARLIE -0.1178
-0.9987 SIX CHECK 0.0000
-0.9987 SIX CHECKMATE 0.0000
-2.0901 SIX DELTA -0.1178
-2.0901 SIX ECHO -0.1178
-2.0901 SIX FOXTROT -0.1178
-2.0901 SIX GOLF -0.1178
-2.0901 SIX HOTEL -0.1178
-2.5092 SIX PROMOTE 0.0000
-1.1870 SIX TO -0.0128
-0.9947 THREE </s> -0.3010
-2.0901 THREE ALPHA -0.1178
-2.0901 THREE BRAVO -0.1178
-1.1870 THREE CAPTURES 0.0000
-2.0901 THREE CHARLIE -0.1178
-0.9987 THREE CHECK 0.0000
-0.9987 THREE CHECKMATE 0.0000
-2.0901 THREE DELTA -0.1178
-2.0901 THREE ECHO -0.1178
-2.0901 THREE FOXTROT -0.1178
-2.0901 THREE GOLF -0.1178
-2.0901 THREE HOTEL -0.1178
-2.5092 THREE PROMOTE 0.0000
-1.1870 THREE TO -0.0128
-1.2173 TO ALPHA -0.0839
-2.4271 TO BISHOP -0.2988
-1.2173 TO BRAVO -0.0839
-1.2173 TO CHARLIE -0.0839
-1.2173 TO DELTA -0.0839
-1.2173 TO ECHO -0.0839
-1.2173 TO FOXTROT -0.0839
-1.2173 TO GOLF -0.0839
-1.2173 TO HOTEL -0.0839
-2.4271 TO KNIGHT -0.2988
-2.4271 TO QUEEN -0.2988
-2.4271 TO ROOK -0.2988
-0.9947 TWO </s> -0.3010
-2.0901 TWO ALPHA -0.1178
-2.0901 TWO BRAVO -0.1178
-1.1870 TWO CAPTURES 0.0000
-2.0901 TWO CHARLIE -0.1178
-0.9987 TWO CHECK 0.0000
-0.9987 TWO CHECKMATE 0.0000
-2.0901 TWO DELTA -0.1178
-2.0901 TWO ECHO -0.1178
-2.0901 TWO FOXTROT -0.1178
-2.0901 TWO GOLF -0.1178
-2.0901 TWO HOTEL -0.1178
-2.5092 TWO PROMOTE 0.0000
-1.1870 TWO TO -0.0128

\3-grams:
-1.4771 <s> ALPHA BRAVO
-0.7289 <s> ALPHA CAPTURES
-1.4771 <s> ALPHA CHARLIE
-1.4771 <s> ALPHA DELTA
-1.4771 <s> ALPHA ECHO
-2.0000 <s> ALPHA EIGHT
-2.0000 <s> ALPHA FIVE
-2.0000 <s> ALPHA FOUR
-1.4771 <s> ALPHA FOXTROT
-1.4771 <s> ALPHA GOLF
-1.4771 <s> ALPHA HOTEL
-2.0000 <s> ALPHA ONE
-2.0000 <s> ALPHA SEVEN
-2.0000 <s> ALPHA SIX
-2.0000 <s> ALPHA THREE
-2.0000 <s> ALPHA TWO
-1.3911 <s> BISHOP ALPHA
-1.3911 <s> BISHOP BRAVO
-2.9877 <s> BISHOP CAPTURES
-1.3911 <s> BISHOP CHARLIE
-1.3911 <s> BISHOP DELTA
-1.3911 <s> BISHOP ECHO
-1.6654 <s> BISHOP EIGHT
-1.6654 <s> BISHOP FIVE
-1.6654 <s> BISHOP FOUR
-1.3911 <s> BISHOP FOXTROT
-1.3911 <s> BISHOP GOLF
-1.3911 <s> BISHOP HOTEL
-1.6654 <s> BISHOP ONE
-1.6654 <s> BISHOP SEVEN
-1.6654 <s> BISHOP SIX
-1.6654 <s> BISHOP THREE
-2.9877 <s> BISHOP TO
-1.6654 <s> BISHOP TWO
-1.4771 <s> BRAVO ALPHA
-0.7289 <s> BRAVO CAPTURES
-1.4771 <s> BRAVO CHARLIE
-1.4771 <s> BRAVO DELTA
-1.4771 <s> BRAVO ECHO
-2.0000 <s> BRAVO EIGHT
-2.0000 <s> BRAVO FIVE
-2.0000 <s> BRAVO FOUR
-1.4771 <s> BRAVO FOXTROT
-1.4771 <s> BRAVO GOLF
-1.4771 <s> BRAVO HOTEL
-2.0000 <s> BRAVO ONE
-2.0000 <s> BRAVO SEVEN
-2.0000 <s> BRAVO SIX
-2.0000 <s> BRAVO THREE
-2.0000 <s> BRAVO TWO
-1.4771 <s> CHARLIE ALPHA
-1.4771 <s> CHARLIE BRAVO
-0.7289 <s> CHARLIE CAPTURES
-1.4771 <s> CHARLIE DELTA
-1.4771 <s> CHARLIE ECHO
-2.0000 <s> CHARLIE EIGHT
-2.0000 <s> CHARLIE FIVE
-2.0000 <s> CHARLIE FOUR
-1.4771 <s> CHARLIE FOXTROT
-1.4771 <s> CHARLIE GOLF
-1.4771 <s> CHARLIE HOTEL
-2.0000 <s> CHARLIE ONE
-2.0000 <s> CHARLIE SEVEN
-2.0000 <s> CHARLIE SIX
-2.0000 <s> CHARLIE THREE
-2.0000 <s> CHARLIE TWO
-1.4771 <s> DELTA ALPHA
-1.4771 <s> DELTA BRAVO
-0.7289 <s> DELTA CAPTURES
-1.4771 <s> DELTA CHARLIE
-1.4771 <s> DELTA ECHO
-2.0000 <s> DELTA EIGHT
-2.0000 <s> DELTA FIVE
-2.0000 <s> DELTA FOUR
-1.4771 <s> DELTA FOXTROT
-1.4771 <s> DELTA GOLF
-1.4771 <s> DELTA HOTEL
-2.0000 <s> DELTA ONE
-2.0000 <s> DELTA SEVEN
-2.0000 <s> DELTA SIX
-2.0000 <s> DELTA THREE
-2.0000 <s> DELTA TWO
-1.4771 <s> ECHO ALPHA
-1.4771 <s> ECHO BRAVO
-0.7289 <s> ECHO CAPTURES
-1.4771 <s> ECHO CHARLIE
-1.4771 <s> ECHO DELTA
-2.0000 <s> ECHO EIGHT
-2.0000 <s> ECHO FIVE
-2.0000 <s> ECHO FOUR
-1.4771 <s> ECHO FOXTROT
-1.4771 <s> ECHO GOLF
-1.4771 <s> ECHO HOTEL
-2.0000 <s> ECHO ONE
-2.0000 <s> ECHO SEVEN
-2.0000 <s> ECHO SIX
-2.0000 <s> ECHO THREE
-2.0000 <s> ECHO TWO
-1.4771 <s> FOXTROT ALPHA
-1.4771 <s> FOXTROT BRAVO
-0.7289 <s> FOXTROT CAPTURES
-1.4771 <s> FOXTROT CHARLIE
-1.4771 <s> FOXTROT DELTA
-1.4771 <s> FOXTROT ECHO
-2.0000 <s> FOXTROT EIGHT
-2.0000 <s> FOXTROT FIVE
-2.0000 <s> FOXTROT FOUR
-1.4771 <s> FOXTROT GOLF
-1.4771 <s> FOXTROT HOTEL
-2.0000 <s> FOXTROT ONE
-2.0000 <s> FOXTROT SEVEN
-2.0000 <s> FOXTROT SIX
-2.0000 <s> FOXTROT THREE
-2.0000 <s> FOXTROT TWO
-1.4771 <s> GOLF ALPHA
-1.4771 <s> GOLF BRAVO
-0.7289 <s> GOLF CAPTURES
-1.4771 <s> GOLF CHARLIE
-1.4771 <s> GOLF DELTA
-1.4771 <s> GOLF ECHO
-2.0000 <s> GOLF EIGHT
-2.0000 <s> GOLF FIVE
-2.0000 <s> GOLF FOUR
-1.4771 <s> GOLF FOXTROT
-1.4771 <s> GOLF HOTEL
-2.0000 <s> GOLF ONE
-2.0000 <s> GOLF SEVEN
-2.0000 <s> GOLF SIX
-2.0000 <s> GOLF THREE
-2.0000 <s> GOLF TWO
-1.4771 <s> HOTEL ALPHA
-1.4771 <s> HOTEL BRAVO
-0.7289 <s> HOTEL CAPTURES
-1.4771 <s> HOTEL CHARLIE
-1.4771 <s> HOTEL DELTA
-1.4771 <s> HOTEL ECHO
-2.0000 <s> HOTEL EIGHT
-2.0000 <s> HOTEL FIVE
-2.0000 <s> HOTEL FOUR
-1.4771 <s> HOTEL FOXTROT
-1.4771 <s> HOTEL GOLF
-2.0000 <s> HOTEL ONE
-2.0000 <s> HOTEL SEVEN
-2.0000 <s> HOTEL SIX
-2.0000 <s> HOTEL THREE
-2.0000 <s> HOTEL TWO
-1.6812 <s> KING ALPHA
-1.6812 <s> KING BRAVO
-0.7782 <s> KING CAPTURES
-1.6812 <s> KING CHARLIE
-1.6812 <s> KING DELTA
-1.6812 <s> KING ECHO
-1.6812 <s> KING FOXTROT
-1.6812 <s> KING GOLF
-1.6812 <s> KING HOTEL
-0.7782 <s> KING TO
-0.3010 <s> KINGSIDE CASTLING
-1.3911 <s> KNIGHT ALPHA
-1.3911 <s> KNIGHT BRAVO
-2.9877 <s> KNIGHT CAPTURES
-1.3911 <s> KNIGHT CHARLIE
-1.3911 <s> KNIGHT DELTA
-1.3911 <s> KNIGHT ECHO
-1.6654 <s> KNIGHT EIGHT
-1.6654 <s> KNIGHT FIVE
-1.6654 <s> KNIGHT FOUR
-1.3911 <s> KNIGHT FOXTROT
-1.3911 <s> KNIGHT GOLF
-1.3911 <s> KNIGHT HOTEL
-1.6654 <s> KNIGHT ONE
-1.6654 <s> KNIGHT SEVEN
-1.6654 <s> KNIGHT SIX
-1.6654 <s> KNIGHT THREE
-2.9877 <s> KNIGHT TO
-1.6654 <s> KNIGHT TWO
-1.3911 <s> QUEEN ALPHA
-1.3911 <s> QUEEN BRAVO
-2.9877 <s> QUEEN CAPTURES
-1.3911 <s> QUEEN CHARLIE
-1.3911 <s> QUEEN DELTA
-1.3911 <s> QUEEN ECHO
-1.6654 <s> QUEEN EIGHT
-1.6654 <s> QUEEN FIVE
-1.6654 <s> QUEEN FOUR
-1.3911 <s> QUEEN FOXTROT
-1.3911 <s> QUEEN GOLF
-1.3911 <s> QUEEN HOTEL
-1.6654 <s> QUEEN ONE
-1.6654 <s> QUEEN SEVEN
-1.6654 <s> QUEEN SIX
-1.6654 <s> QUEEN THREE
-2.9877 <s> QUEEN TO
-1.6654 <s> QUEEN TWO
-0.3010 <s> QUEENSIDE CASTLING
-1.3911 <s> ROOK ALPHA
-1.3911 <s> ROOK BRAVO
-2.9877 <s> ROOK CAPTURES
-1.3911 <s> ROOK CHARLIE
-1.3911 <s> ROOK DELTA
-1.3911 <s> ROOK ECHO
-1.6654 <s> ROOK EIGHT
-1.6654 <s> ROOK FIVE
-1.6654 <s> ROOK FOUR
-1.3911 <s> ROOK FOXTROT
-1.3911 <s> ROOK GOLF
-1.3911 <s> ROOK HOTEL
-1.6654 <s> ROOK ONE
-1.6654 <s> ROOK SEVEN
-1.6654 <s> ROOK SIX
-1.6654 <s> ROOK THREE
-2.9877 <s> ROOK TO
-1.6654 <s> ROOK TWO
-1.2041 ALPHA BRAVO EIGHT
-1.2041 ALPHA BRAVO FIVE
-1.2041 ALPHA BRAVO FOUR
-1.2041 ALPHA BRAVO ONE
-1.2041 ALPHA BRAVO SEVEN
-1.2041 ALPHA BRAVO SIX
-1.2041 ALPHA BRAVO THREE
-1.2041 ALPHA BRAVO TWO
-0.7959 ALPHA CAPTURES ALPHA
-1.3136 ALPHA CAPTURES BRAVO
-1.3136 ALPHA CAPTURES CHARLIE
-1.3136 ALPHA CAPTURES DELTA
-1.3136 ALPHA CAPTURES ECHO
-1.3136 ALPHA CAPTURES FOXTROT
-1.3136 ALPHA CAPTURES GOLF
-1.3136 ALPHA CAPTURES HOTEL
-1.2041 ALPHA CHARLIE EIGHT
-1.2041 ALPHA CHARLIE FIVE
-1.2041 ALPHA CHARLIE FOUR
-1.2041 ALPHA CHARLIE ONE
-1.2041 ALPHA CHARLIE SEVEN
-1.2041 ALPHA CHARLIE SIX
-1.2041 ALPHA CHARLIE THREE
-1.2041 ALPHA CHARLIE TWO
-1.2041 ALPHA DELTA EIGHT
-1.2041 ALPHA DELTA FIVE
-1.2041 ALPHA DELTA FOUR
-1.2041 ALPHA DELTA ONE
-1.2041 ALPHA DELTA SEVEN
-1.2041 ALPHA DELTA SIX
-1.2041 ALPHA DELTA THREE
-1.2041 ALPHA DELTA TWO
-1.2041 ALPHA ECHO EIGHT
-1.2041 ALPHA ECHO FIVE
-1.2041 ALPHA ECHO FOUR
-1.2041 ALPHA ECHO ONE
-1.2041 ALPHA ECHO SEVEN
-1.2041 ALPHA ECHO SIX
-1.2041 ALPHA ECHO THREE
-1.2041 ALPHA ECHO TWO
-0.8934 ALPHA EIGHT </s>
-2.2618 ALPHA EIGHT BRAVO
-1.4167 ALPHA EIGHT CAPTURES
-2.2618 ALPHA EIGHT CHARLIE
-0.8974 ALPHA EIGHT CHECK
-0.8974 ALPHA EIGHT CHECKMATE
-2.2618 ALPHA EIGHT DELTA
-2.2618 ALPHA EIGHT ECHO
-2.2618 ALPHA EIGHT FOXTROT
-2.2618 ALPHA EIGHT GOLF
-2.2618 ALPHA EIGHT HOTEL
-2.4079 ALPHA EIGHT PROMOTE
-1.4167 ALPHA EIGHT TO
-0.8934 ALPHA FIVE </s>
-2.2618 ALPHA FIVE BRAVO
-1.4167 ALPHA FIVE CAPTURES
-2.2618 ALPHA FIVE CHARLIE
-0.8974 ALPHA FIVE CHECK
-0.8974 ALPHA FIVE CHECKMATE
-2.2618 ALPHA FIVE DELTA
-2.2618 ALPHA FIVE ECHO
-2.2618 ALPHA FIVE FOXTROT
-2.2618 ALPHA FIVE GOLF
-2.2618 ALPHA FIVE HOTEL
-2.4079 ALPHA FIVE PROMOTE
-1.4167 ALPHA FIVE TO
-0.8934 ALPHA FOUR </s>
-2.2618 ALPHA FOUR BRAVO
-1.4167 ALPHA FOUR CAPTURES
-2.2618 ALPHA FOUR CHARLIE
-0.8974 ALPHA FOUR CHECK
-0.8974 ALPHA FOUR CHECKMATE
-2.2618 ALPHA FOUR DELTA
-2.2618 ALPHA FOUR ECHO
-2.2618 ALPHA FOUR FOXTROT
-2.2618 ALPHA FOUR GOLF
-2.2618 ALPHA FOUR HOTEL
-2.4079 ALPHA FOUR PROMOTE
-1.4167 ALPHA FOUR TO
-1.2041 ALPHA FOXTROT EIGHT
-1.2041 ALPHA FOXTROT FIVE
-1.2041 ALPHA FOXTROT FOUR
-1.2041 ALPHA FOXTROT ONE
-1.2041 ALPHA FOXTROT SEVEN
-1.2041 ALPHA FOXTROT SIX
-1.2041 ALPHA FOXTROT THREE
-1.2041 ALPHA FOXTROT TWO
-1.2041 ALPHA GOLF EIGHT
-1.2041 ALPHA GOLF FIVE
-1.2041 ALPHA GOLF FOUR
-1.2041 ALPHA GOLF ONE
-1.2041 ALPHA GOLF SEVEN
-1.2041 ALPHA GOLF SIX
-1.2041 ALPHA GOLF THREE
-1.2041 ALPHA GOLF TWO
-1.2041 ALPHA HOTEL EIGHT
-1.2041 ALPHA HOTEL FIVE
-1.2041 ALPHA HOTEL FOUR
-1.2041 ALPHA HOTEL ONE
-1.2041 ALPHA HOTEL SEVEN
-1.2041 ALPHA HOTEL SIX
-1.2041 ALPHA HOTEL THREE
-1.2041 ALPHA HOTEL TWO
-0.8934 ALPHA ONE </s>
-2.2618 ALPHA ONE BRAVO
-1.4167 ALPHA ONE CAPTURES
-2.2618 ALPHA ONE CHARLIE
-0.8974 ALPHA ONE CHECK
-0.8974 ALPHA ONE CHECKMATE
-2.2618 ALPHA ONE DELTA
-2.2618 ALPHA ONE ECHO
-2.2618 ALPHA ONE FOXTROT
-2.2618 ALPHA ONE GOLF
-2.2618 ALPHA ONE HOTEL
-2.4079 ALPHA ONE PROMOTE
-1.4167 ALPHA ONE TO
-0.8934 ALPHA SEVEN </s>
-2.2618 ALPHA SEVEN BRAVO
-1.4167 ALPHA SEVEN CAPTURES
-2.2618 ALPHA SEVEN CHARLIE
-0.8974 ALPHA SEVEN CHECK
-0.8974 ALPHA SEVEN CHECKMATE
-2.2618 ALPHA SEVEN DELTA
-2.2618 ALPHA SEVEN ECHO
-2.2618 ALPHA SEVEN FOXTROT
-2.2618 ALPHA SEVEN GOLF
-2.2618 ALPHA SEVEN HOTEL
-2.4079 ALPHA SEVEN PROMOTE
-1.4167 ALPHA SEVEN TO
-0.8934 ALPHA SIX </s>
-2.2618 ALPHA SIX BRAVO
-1.4167 ALPHA SIX CAPTURES
-2.2618 ALPHA SIX CHARLIE
-0.8974 ALPHA SIX CHECK
-0.8974 ALPHA SIX CHECKMATE
-2.2618 ALPHA SIX DELTA
-2.2618 ALPHA SIX ECHO
-2.2618 ALPHA SIX FOXTROT
-2.2618 ALPHA SIX GOLF
-2.2618 ALPHA SIX HOTEL
-2.4079 ALPHA SIX PROMOTE
-1.4167 ALPHA SIX TO
-0.8934 ALPHA THREE </s>
-2.2618 ALPHA THREE BRAVO
-1.4167 ALPHA THREE CAPTURES
-2.2618 ALPHA THREE CHARLIE
-0.8974 ALPHA THREE CHECK
-0.8974 ALPHA THREE CHECKMATE
-2.2618 ALPHA THREE DELTA
-2.2618 ALPHA THREE ECHO
-2.2618 ALPHA THREE FOXTROT
-2.2618 ALPHA THREE GOLF
-2.2618 ALPHA THREE HOTEL
-2.4079 ALPHA THREE PROMOTE
-1.4167 ALPHA THREE TO
-1.1461 ALPHA TO BRAVO
-1.1461 ALPHA TO CHARLIE
-1.1461 ALPHA TO DELTA
-1.1461 ALPHA TO ECHO
-1.1461 ALPHA TO FOXTROT
-1.1461 ALPHA TO GOLF
-1.1461 ALPHA TO HOTEL
-0.8934 ALPHA TWO </s>
-2.2618 ALPHA TWO BRAVO
-1.4167 ALPHA TWO CAPTURES
-2.2618 ALPHA TWO CHARLIE
-0.8974 ALPHA TWO CHECK
-0.8974 ALPHA TWO CHECKMATE
-2.2618 ALPHA TWO DELTA
-2.2618 ALPHA TWO ECHO
-2.2618 ALPHA TWO FOXTROT
-2.2618 ALPHA TWO GOLF
-2.2618 ALPHA TWO HOTEL
-2.4079 ALPHA TWO PROMOTE
-1.4167 ALPHA TWO TO
-1.8976 BISHOP ALPHA BRAVO
-1.0525 BISHOP ALPHA CAPTURES
-1.8976 BISHOP ALPHA CHARLIE
-1.8976 BISHOP ALPHA DELTA
-1.8976 BISHOP ALPHA ECHO
-1.5335 BISHOP ALPHA EIGHT
-1.5335 BISHOP ALPHA FIVE
-1.5335 BISHOP ALPHA FOUR
-1.8976 BISHOP ALPHA FOXTROT
-1.8976 BISHOP ALPHA GOLF
-1.8976 BISHOP ALPHA HOTEL
-1.5335 BISHOP ALPHA ONE
-1.5335 BISHOP ALPHA SEVEN
-1.5335 BISHOP ALPHA SIX
-1.5335 BISHOP ALPHA THREE
-1.0525 BISHOP ALPHA TO
-1.5335 BISHOP ALPHA TWO
-1.8976 BISHOP BRAVO ALPHA
-1.0525 BISHOP BRAVO CAPTURES
-1.8976 BISHOP BRAVO CHARLIE
-1.8976 BISHOP BRAVO DELTA
-1.8976 BISHOP BRAVO ECHO
-1.5335 BISHOP BRAVO EIGHT
-1.5335 BISHOP BRAVO FIVE
-1.5335 BISHOP BRAVO FOUR
-1.8976 BISHOP BRAVO FOXTROT
-1.8976 BISHOP BRAVO GOLF
-1.8976 BISHOP BRAVO HOTEL
-1.5335 BISHOP BRAVO ONE
-1.5335 BISHOP BRAVO SEVEN
-1.5335 BISHOP BRAVO SIX
-1.5335 BISHOP BRAVO THREE
-1.0525 BISHOP BRAVO TO
-1.5335 BISHOP BRAVO TWO
-1.2041 BISHOP CAPTURES ALPHA
-1.2041 BISHOP CAPTURES BRAVO
-1.2041 BISHOP CAPTURES CHARLIE
-1.2041 BISHOP CAPTURES DELTA
-1.2041 BISHOP CAPTURES ECHO
-1.2041 BISHOP CAPTURES FOXTROT
-1.2041 BISHOP CAPTURES GOLF
-1.2041 BISHOP CAPTURES HOTEL
-1.8976 BISHOP CHARLIE ALPHA
-1.8976 BISHOP CHARLIE BRAVO
-1.0525 BISHOP CHARLIE CAPTURES
-1.8976 BISHOP CHARLIE DELTA
-1.8976 BISHOP CHARLIE ECHO
-1.5335 BISHOP CHARLIE EIGHT
-1.5335 BISHOP CHARLIE FIVE
-1.5335 BISHOP CHARLIE FOUR
-1.8976 BISHOP CHARLIE FOXTROT
-1.8976 BISHOP CHARLIE GOLF
-1.8976 BISHOP CHARLIE HOTEL
-1.5335 BISHOP CHARLIE ONE
-1.5335 BISHOP CHARLIE SEVEN
-1.5335 BISHOP CHARLIE SIX
-1.5335 BISHOP CHARLIE THREE
-1.0525 BISHOP CHARLIE TO
-1.5335 BISHOP CHARLIE TWO
-1.8976 BISHOP DELTA ALPHA
-1.8976 BISHOP DELTA BRAVO
-1.0525 BISHOP DELTA CAPTURES
-1.8976 BISHOP DELTA CHARLIE
-1.8976 BISHOP DELTA ECHO
-1.5335 BISHOP DELTA EIGHT
-1.5335 BISHOP DELTA FIVE
-1.5335 BISHOP DELTA FOUR
-1.8976 BISHOP DELTA FOXTROT
-1.8976 BISHOP DELTA GOLF
-1.8976 BISHOP DELTA HOTEL
-1.5335 BISHOP DELTA ONE
-1.5335 BISHOP DELTA SEVEN
-1.5335 BISHOP DELTA SIX
-1.5335 BISHOP DELTA THREE
-1.0525 BISHOP DELTA TO
-1.5335 BISHOP DELTA TWO
-1.8976 BISHOP ECHO ALPHA
-1.8976 BISHOP ECHO BRAVO
-1.0525 BISHOP ECHO CAPTURES
-1.8976 BISHOP ECHO CHARLIE
-1.8976 BISHOP ECHO DELTA
-1.5335 BISHOP ECHO EIGHT
-1.5335 BISHOP ECHO FIVE
-1.5335 BISHOP ECHO FOUR
-1.8976 BISHOP ECHO FOXTROT
-1.8976 BISHOP ECHO GOLF
-1.8976 BISHOP ECHO HOTEL
-1.5335 BISHOP ECHO ONE
-1.5335 BISHOP ECHO SEVEN
-1.5335 BISHOP ECHO SIX
-1.5335 BISHOP ECHO THREE
-1.0525 BISHOP ECHO TO
-1.5335 BISHOP ECHO TWO
-1.6812 BISHOP EIGHT ALPHA
-1.6812 BISHOP EIGHT BRAVO
-0.7782 BISHOP EIGHT CAPTURES
-1.6812 BISHOP EIGHT CHARLIE
-1.6812 BISHOP EIGHT DELTA
-1.6812 BISHOP EIGHT ECHO
-1.6812 BISHOP EIGHT FOXTROT
-1.6812 BISHOP EIGHT GOLF
-1.6812 BISHOP EIGHT HOTEL
-0.7782 BISHOP EIGHT TO
-1.6812 BISHOP FIVE ALPHA
-1.6812 BISHOP FIVE BRAVO
-0.7782 BISHOP FIVE CAPTURES
-1.6812 BISHOP FIVE CHARLIE
-1.6812 BISHOP FIVE DELTA
-1.6812 BISHOP FIVE ECHO
-1.6812 BISHOP FIVE FOXTROT
-1.6812 BISHOP FIVE GOLF
-1.6812 BISHOP FIVE HOTEL
-0.7782 BISHOP FIVE TO
-1.6812 BISHOP FOUR ALPHA
-1.6812 BISHOP FOUR BRAVO
-0.7782 BISHOP FOUR CAPTURES
-1.6812 BISHOP FOUR CHARLIE
-1.6812 BISHOP FOUR DELTA
-1.6812 BISHOP FOUR ECHO
-1.6812 BISHOP FOUR FOXTROT
-1.6812 BISHOP FOUR GOLF
-1.6812 BISHOP FOUR HOTEL
-0.7782 BISHOP FOUR TO
-1.8976 BISHOP FOXTROT ALPHA
-1.8976 BISHOP FOXTROT BRAVO
-1.0525 BISHOP FOXTROT CAPTURES
-1.8976 BISHOP FOXTROT CHARLIE
-1.8976 BISHOP FOXTROT DELTA
-1.8976 BISHOP FOXTROT ECHO
-1.5335 BISHOP FOXTROT EIGHT
-1.5335 BISHOP FOXTROT FIVE
-1.5335 BISHOP FOXTROT FOUR
-1.8976 BISHOP FOXTROT GOLF
-1.8976 BISHOP FOXTROT HOTEL
-1.5335 BISHOP FOXTROT ONE
-1.5335 BISHOP FOXTROT SEVEN
-1.5335 BISHOP FOXTROT SIX
-1.5335 BISHOP FOXTROT THREE
-1.0525 BISHOP FOXTROT TO
-1.5335 BISHOP FOXTROT TWO
-1.8976 BISHOP GOLF ALPHA
-1.8976 BISHOP GOLF BRAVO
-1.0525 BISHOP GOLF CAPTURES
-1.8976 BISHOP GOLF CHARLIE
-1.8976 BISHOP GOLF DELTA
-1.8976 BISHOP GOLF ECHO
-1.5335 BISHOP GOLF EIGHT
-1.5335 BISHOP GOLF FIVE
-1.5335 BISHOP GOLF FOUR
-1.8976 BISHOP GOLF FOXTROT
-1.8976 BISHOP GOLF HOTEL
-1.5335 BISHOP GOLF ONE
-1.5335 BISHOP GOLF SEVEN
-1.5335 BISHOP GOLF SIX
-1.5335 BISHOP GOLF THREE
-1.0525 BISHOP GOLF TO
-1.5335 BISHOP GOLF TWO
-1.8976 BISHOP HOTEL ALPHA
-1.8976 BISHOP HOTEL BRAVO
-1.0525 BISHOP HOTEL CAPTURES
-1.8976 BISHOP HOTEL CHARLIE
-1.8976 BISHOP HOTEL DELTA
-1.8976 BISHOP HOTEL ECHO
-1.5335 BISHOP HOTEL EIGHT
-1.5335 BISHOP HOTEL FIVE
-1.5335 BISHOP HOTEL FOUR
-1.8976 BISHOP HOTEL FOXTROT
-1.8976 BISHOP HOTEL GOLF
-1.5335 BISHOP HOTEL ONE
-1.5335 BISHOP HOTEL SEVEN
-1.5335 BISHOP HOTEL SIX
-1.5335 BISHOP HOTEL THREE
-1.0525 BISHOP HOTEL TO
-1.5335 BISHOP HOTEL TWO
-1.6812 BISHOP ONE ALPHA
-1.6812 BISHOP ONE BRAVO
-0.7782 BISHOP ONE CAPTURES
-1.6812 BISHOP ONE CHARLIE
-1.6812 BISHOP ONE DELTA
-1.6812 BISHOP ONE ECHO
-1.6812 BISHOP ONE FOXTROT
-1.6812 BISHOP ONE GOLF
-1.6812 BISHOP ONE HOTEL
-0.7782 BISHOP ONE TO
-1.6812 BISHOP SEVEN ALPHA
-1.6812 BISHOP SEVEN BRAVO
-0.7782 BISHOP SEVEN CAPTURES
-1.6812 BISHOP SEVEN CHARLIE
-1.6812 BISHOP SEVEN DELTA
-1.6812 BISHOP SEVEN ECHO
-1.6812 BISHOP SEVEN FOXTROT
-1.6812 BISHOP SEVEN GOLF
-1.6812 BISHOP SEVEN HOTEL
-0.7782 BISHOP SEVEN TO
-1.6812 BISHOP SIX ALPHA
-1.6812 BISHOP SIX BRAVO
-0.7782 BISHOP SIX CAPTURES
-1.6812 BISHOP SIX CHARLIE
-1.6812 BISHOP SIX DELTA
-1.6812 BISHOP SIX ECHO
-1.6812 BISHOP SIX FOXTROT
-1.6812 BISHOP SIX GOLF
-1.6812 BISHOP SIX HOTEL
-0.7782 BISHOP SIX TO
-1.6812 BISHOP THREE ALPHA
-1.6812 BISHOP THREE BRAVO
-0.7782 BISHOP THREE CAPTURES
-1.6812 BISHOP THREE CHARLIE
-1.6812 BISHOP THREE DELTA
-1.6812 BISHOP THREE ECHO
-1.6812 BISHOP THREE FOXTROT
-1.6812 BISHOP THREE GOLF
-1.6812 BISHOP THREE HOTEL
-0.7782 BISHOP THREE TO
-1.2041 BISHOP TO ALPHA
-1.2041 BISHOP TO BRAVO
-1.2041 BISHOP TO CHARLIE
-1.2041 BISHOP TO DELTA
-1.2041 BISHOP TO ECHO
-1.2041 BISHOP TO FOXTROT
-1.2041 BISHOP TO GOLF
-1.2041 BISHOP TO HOTEL
-1.6812 BISHOP TWO ALPHA
-1.6812 BISHOP TWO BRAVO
-0.7782 BISHOP TWO CAPTURES
-1.6812 BISHOP TWO CHARLIE
-1.6812 BISHOP TWO DELTA
-1.6812 BISHOP TWO ECHO
-1.6812 BISHOP TWO FOXTROT
-1.6812 BISHOP TWO GOLF
-1.6812 BISHOP TWO HOTEL
-0.7782 BISHOP TWO TO
-1.2041 BRAVO ALPHA EIGHT
-1.2041 BRAVO ALPHA FIVE
-1.2041 BRAVO ALPHA FOUR
-1.2041 BRAVO ALPHA ONE
-1.2041 BRAVO ALPHA SEVEN
-1.2041 BRAVO ALPHA SIX
-1.2041 BRAVO ALPHA THREE
-1.2041 BRAVO ALPHA TWO
-1.3136 BRAVO CAPTURES ALPHA
-0.7959 BRAVO CAPTURES BRAVO
-1.3136 BRAVO CAPTURES CHARLIE
-1.3136 BRAVO CAPTURES DELTA
-1.3136 BRAVO CAPTURES ECHO
-1.3136 BRAVO CAPTURES FOXTROT
-1.3136 BRAVO CAPTURES GOLF
-1.3136 BRAVO CAPTURES HOTEL
-1.2041 BRAVO CHARLIE EIGHT
-1.2041 BRAVO CHARLIE FIVE
-1.2041 BRAVO CHARLIE FOUR
-1.2041 BRAVO CHARLIE ONE
-1.2041 BRAVO CHARLIE SEVEN
-1.2041 BRAVO CHARLIE SIX
-1.2041 BRAVO CHARLIE THREE
-1.2041 BRAVO CHARLIE TWO
-1.2041 BRAVO DELTA EIGHT
-1.2041 BRAVO DELTA FIVE
-1.2041 BRAVO DELTA FOUR
-1.2041 BRAVO DELTA ONE
-1.2041 BRAVO DELTA SEVEN
-1.2041 BRAVO DELTA SIX
-1.2041 BRAVO DELTA THREE
-1.2041 BRAVO DELTA TWO
-1.2041 BRAVO ECHO EIGHT
-1.2041 BRAVO ECHO FIVE
-1.2041 BRAVO ECHO FOUR
-1.2041 BRAVO ECHO ONE
-1.2041 BRAVO ECHO SEVEN
-1.2041 BRAVO ECHO SIX
-1.2041 BRAVO ECHO THREE
-1.2041 BRAVO ECHO TWO
-0.8934 BRAVO EIGHT </s>
-2.2618 BRAVO EIGHT ALPHA
-1.4167 BRAVO EIGHT CAPTURES
-2.2618 BRAVO EIGHT CHARLIE
-0.8974 BRAVO EIGHT CHECK
-0.8974 BRAVO EIGHT CHECKMATE
-2.2618 BRAVO EIGHT DELTA
-2.2618 BRAVO EIGHT ECHO
-2.2618 BRAVO EIGHT FOXTROT
-2.2618 BRAVO EIGHT GOLF
-2.2618 BRAVO EIGHT HOTEL
-2.4079 BRAVO EIGHT PROMOTE
-1.4167 BRAVO EIGHT TO
-0.8934 BRAVO FIVE </s>
-2.2618 BRAVO FIVE ALPHA
-1.4167 BRAVO FIVE CAPTURES
-2.2618 BRAVO FIVE CHARLIE
-0.8974 BRAVO FIVE CHECK
-0.8974 BRAVO FIVE CHECKMATE
-2.2618 BRAVO FIVE DELTA
-2.2618 BRAVO FIVE ECHO
-2.2618 BRAVO FIVE FOXTROT
-2.2618 BRAVO FIVE GOLF
-2.2618 BRAVO FIVE HOTEL
-2.4079 BRAVO FIVE PROMOTE
-1.4167 BRAVO FIVE TO
-0.8934 BRAVO FOUR </s>
-2.2618 BRAVO FOUR ALPHA
-1.4167 BRAVO FOUR CAPTURES
-2.2618 BRAVO FOUR CHARLIE
-0.8974 BRAVO FOUR CHECK
-0.8974 BRAVO FOUR CHECKMATE
-2.2618 BRAVO FOUR DELTA
-2.2618 BRAVO FOUR ECHO
-2.2618 BRAVO FOUR FOXTROT
-2.2618 BRAVO FOUR GOLF
-2.2618 BRAVO FOUR HOTEL
-2.4079 BRAVO FOUR PROMOTE
-1.4167 BRAVO FOUR TO
-1.2041 BRAVO FOXTROT EIGHT
-1.2041 BRAVO FOXTROT FIVE
-1.2041 BRAVO FOXTROT FOUR
-1.2041 BRAVO FOXTROT ONE
-1.2041 BRAVO FOXTROT SEVEN
-1.2041 BRAVO FOXTROT SIX
-1.2041 BRAVO FOXTROT THREE
-1.2041 BRAVO FOXTROT TWO
-1.2041 BRAVO GOLF EIGHT
-1.2041 BRAVO GOLF FIVE
-1.2041 BRAVO GOLF FOUR
-1.2041 BRAVO GOLF ONE
-1.2041 BRAVO GOLF SEVEN
-1.2041 BRAVO GOLF SIX
-1.2041 BRAVO GOLF THREE
-1.2041 BRAVO GOLF TWO
-1.2041 BRAVO HOTEL EIGHT
-1.2041 BRAVO HOTEL FIVE
-1.2041 BRAVO HOTEL FOUR
-1.2041 BRAVO HOTEL ONE
-1.2041 BRAVO HOTEL SEVEN
-1.2041 BRAVO HOTEL SIX
-1.2041 BRAVO HOTEL THREE
-1.2041 BRAVO HOTEL TWO
-0.8934 BRAVO ONE </s>
-2.2618 BRAVO ONE ALPHA
-1.4167 BRAVO ONE CAPTURES
-2.2618 BRAVO ONE CHARLIE
-0.8974 BRAVO ONE CHECK
-0.8974 BRAVO ONE CHECKMATE
-2.2618 BRAVO ONE DELTA
-2.2618 BRAVO ONE ECHO
-2.2618 BRAVO ONE FOXTROT
-2.2618 BRAVO ONE GOLF
-2.2618 BRAVO ONE HOTEL
-2.4079 BRAVO ONE PROMOTE
-1.4167 BRAVO ONE TO
-0.8934 BRAVO SEVEN </s>
-2.2618 BRAVO SEVEN ALPHA
-1.4167 BRAVO SEVEN CAPTURES
-2.2618 BRAVO SEVEN CHARLIE
-0.8974 BRAVO SEVEN CHECK
-0.8974 BRAVO SEVEN CHECKMATE
-2.2618 BRAVO SEVEN DELTA
-2.2618 BRAVO SEVEN ECHO
-2.2618 BRAVO SEVEN FOXTROT
-2.2618 BRAVO SEVEN GOLF
-2.2618 BRAVO SEVEN HOTEL
-2.4079 BRAVO SEVEN PROMOTE
-1.4167 BRAVO SEVEN TO
-0.8934 BRAVO SIX </s>
-2.2618 BRAVO SIX ALPHA
-1.4167 BRAVO SIX CAPTURES
-2.2618 BRAVO SIX CHARLIE
-0.8974 BRAVO SIX CHECK
-0.8974 BRAVO SIX CHECKMATE
-2.2618 BRAVO SIX DELTA
-2.2618 BRAVO SIX ECHO
-2.2618 BRAVO SIX FOXTROT
-2.2618 BRAVO SIX GOLF
-2.2618 BRAVO SIX HOTEL
-2.4079 BRAVO SIX PROMOTE
-1.4167 BRAVO SIX TO
-0.8934 BRAVO THREE </s>
-2.2618 BRAVO THREE ALPHA
-1.4167 BRAVO THREE CAPTURES
-2.2618 BRAVO THREE CHARLIE
-0.8974 BRAVO THREE CHECK
-0.8974 BRAVO THREE CHECKMATE
-2.2618 BRAVO THREE DELTA
-2.2618 BRAVO THREE ECHO
-2.2618 BRAVO THREE FOXTROT
-2.2618 BRAVO THREE GOLF
-2.2618 BRAVO THREE HOTEL
-2.4079 BRAVO THREE PROMOTE
-1.4167 BRAVO THREE TO
-1.1461 BRAVO TO ALPHA
-1.1461 BRAVO TO CHARLIE
-1.1461 BRAVO TO DELTA
-1.1461 BRAVO TO ECHO
-1.1461 BRAVO TO FOXTROT
-1.1461 BRAVO TO GOLF
-1.1461 BRAVO TO HOTEL
-0.8934 BRAVO TWO </s>
-2.2618 BRAVO TWO ALPHA
-1.4167 BRAVO TWO CAPTURES
-2.2618 BRAVO TWO CHARLIE
-0.8974 BRAVO TWO CHECK
-0.8974 BRAVO TWO CHECKMATE
-2.2618 BRAVO TWO DELTA
-2.2618 BRAVO TWO ECHO
-2.2618 BRAVO TWO FOXTROT
-2.2618 BRAVO TWO GOLF
-2.2618 BRAVO TWO HOTEL
-2.4079 BRAVO TWO PROMOTE
-1.4167 BRAVO TWO TO
-1.2041 CAPTURES ALPHA EIGHT
-1.2041 CAPTURES ALPHA FIVE
-1.2041 CAPTURES ALPHA FOUR
-1.2041 CAPTURES ALPHA ONE
-1.2041 CAPTURES ALPHA SEVEN
-1.2041 CAPTURES ALPHA SIX
-1.2041 CAPTURES ALPHA THREE
-1.2041 CAPTURES ALPHA TWO
-1.2041 CAPTURES BRAVO EIGHT
-1.2041 CAPTURES BRAVO FIVE
-1.2041 CAPTURES BRAVO FOUR
-1.2041 CAPTURES BRAVO ONE
-1.2041 CAPTURES BRAVO SEVEN
-1.2041 CAPTURES BRAVO SIX
-1.2041 CAPTURES BRAVO THREE
-1.2041 CAPTURES BRAVO TWO
-1.2041 CAPTURES CHARLIE EIGHT
-1.2041 CAPTURES CHARLIE FIVE
-1.2041 CAPTURES CHARLIE FOUR
-1.2041 CAPTURES CHARLIE ONE
-1.2041 CAPTURES CHARLIE SEVEN
-1.2041 CAPTURES CHARLIE SIX
-1.2041 CAPTURES CHARLIE THREE
-1.2041 CAPTURES CHARLIE TWO
-1.2041 CAPTURES DELTA EIGHT
-1.2041 CAPTURES DELTA FIVE
-1.2041 CAPTURES DELTA FOUR
-1.2041 CAPTURES DELTA ONE
-1.2041 CAPTURES DELTA SEVEN
-1.2041 CAPTURES DELTA SIX
-1.2041 CAPTURES DELTA THREE
-1.2041 CAPTURES DELTA TWO
-1.2041 CAPTURES ECHO EIGHT
-1.2041 CAPTURES ECHO FIVE
-1.2041 CAPTURES ECHO FOUR
-1.2041 CAPTURES ECHO ONE
-1.2041 CAPTURES ECHO SEVEN
-1.2041 CAPTURES ECHO SIX
-1.2041 CAPTURES ECHO THREE
-1.2041 CAPTURES ECHO TWO
-1.2041 CAPTURES FOXTROT EIGHT
-1.2041 CAPTURES FOXTROT FIVE
-1.2041 CAPTURES FOXTROT FOUR
-1.2041 CAPTURES FOXTROT ONE
-1.2041 CAPTURES FOXTROT SEVEN
-1.2041 CAPTURES FOXTROT SIX
-1.2041 CAPTURES FOXTROT THREE
-1.2041 CAPTURES FOXTROT TWO
-1.2041 CAPTURES GOLF EIGHT
-1.2041 CAPTURES GOLF FIVE
-1.2041 CAPTURES GOLF FOUR
-1.2041 CAPTURES GOLF ONE
-1.2041 CAPTURES GOLF SEVEN
-1.2041 CAPTURES GOLF SIX
-1.2041 CAPTURES GOLF THREE
-1.2041 CAPTURES GOLF TWO
-1.2041 CAPTURES HOTEL EIGHT
-1.2041 CAPTURES HOTEL FIVE
-1.2041 CAPTURES HOTEL FOUR
-1.2041 CAPTURES HOTEL ONE
-1.2041 CAPTURES HOTEL SEVEN
-1.2041 CAPTURES HOTEL SIX
-1.2041 CAPTURES HOTEL THREE
-1.2041 CAPTURES HOTEL TWO
-1.2041 CHARLIE ALPHA EIGHT
-1.2041 CHARLIE ALPHA FIVE
-1.2041 CHARLIE ALPHA FOUR
-1.2041 CHARLIE ALPHA ONE
-1.2041 CHARLIE ALPHA SEVEN
-1.2041 CHARLIE ALPHA SIX
-1.2041 CHARLIE ALPHA THREE
-1.2041 CHARLIE ALPHA TWO
-1.2041 CHARLIE BRAVO EIGHT
-1.2041 CHARLIE BRAVO FIVE
-1.2041 CHARLIE BRAVO FOUR
-1.2041 CHARLIE BRAVO ONE
-1.2041 CHARLIE BRAVO SEVEN
-1.2041 CHARLIE BRAVO SIX
-1.2041 CHARLIE BRAVO THREE
-1.2041 CHARLIE BRAVO TWO
-1.3136 CHARLIE CAPTURES ALPHA
-1.3136 CHARLIE CAPTURES BRAVO
-0.7959 CHARLIE CAPTURES CHARLIE
-1.3136 CHARLIE CAPTURES DELTA
-1.3136 CHARLIE CAPTURES ECHO
-1.3136 CHARLIE CAPTURES FOXTROT
-1.3136 CHARLIE CAPTURES GOLF
-1.3136 CHARLIE CAPTURES HOTEL
-1.2041 CHARLIE DELTA EIGHT
-1.2041 CHARLIE DELTA FIVE
-1.2041 CHARLIE DELTA FOUR
-1.2041 CHARLIE DELTA ONE
-1.2041 CHARLIE DELTA SEVEN
-1.2041 CHARLIE DELTA SIX
-1.2041 CHARLIE DELTA THREE
-1.2041 CHARLIE DELTA TWO
-1.2041 CHARLIE ECHO EIGHT
-1.2041 CHARLIE ECHO FIVE
-1.2041 CHARLIE ECHO FOUR
-1.2041 CHARLIE ECHO ONE
-1.2041 CHARLIE ECHO SEVEN
-1.2041 CHARLIE ECHO SIX
-1.2041 CHARLIE ECHO THREE
-1.2041 CHARLIE ECHO TWO
-0.8934 CHARLIE EIGHT </s>
-2.2618 CHARLIE EIGHT ALPHA
-2.2618 CHARLIE EIGHT BRAVO
-1.4167 CHARLIE EIGHT CAPTURES
-0.8974 CHARLIE EIGHT CHECK
-0.8974 CHARLIE EIGHT CHECKMATE
-2.2618 CHARLIE EIGHT DELTA
-2.2618 CHARLIE EIGHT ECHO
-2.2618 CHARLIE EIGHT FOXTROT
-2.2618 CHARLIE EIGHT GOLF
-2.2618 CHARLIE EIGHT HOTEL
-2.4079 CHARLIE EIGHT PROMOTE
-1.4167 CHARLIE EIGHT TO
-0.8934 CHARLIE FIVE </s>
-2.2618 CHARLIE FIVE ALPHA
-2.2618 CHARLIE FIVE BRAVO
-1.4167 CHARLIE FIVE CAPTURES
-0.8974 CHARLIE FIVE CHECK
-0.8974 CHARLIE FIVE CHECKMATE
-2.2618 CHARLIE FIVE DELTA
-2.2618 CHARLIE FIVE ECHO
-2.2618 CHARLIE FIVE FOXTROT
-2.2618 CHARLIE FIVE GOLF
-2.2618 CHARLIE FIVE HOTEL
-2.4079 CHARLIE FIVE PROMOTE
-1.4167 CHARLIE FIVE TO
-0.8934 CHARLIE FOUR </s>
-2.2618 CHARLIE FOUR ALPHA
-2.2618 CHARLIE FOUR BRAVO
-1.4167 CHARLIE FOUR CAPTURES
-0.8974 CHARLIE FOUR CHECK
-0.8974 CHARLIE FOUR CHECKMATE
-2.2618 CHARLIE FOUR DELTA
-2.2618 CHARLIE FOUR ECHO
-2.2618 CHARLIE FOUR FOXTROT
-2.2618 CHARLIE FOUR GOLF
-2.2618 CHARLIE FOUR HOTEL
-2.4079 CHARLIE FOUR PROMOTE
-1.4167 CHARLIE FOUR TO
-1.2041 CHARLIE FOXTROT EIGHT
-1.2041 CHARLIE FOXTROT FIVE
-1.2041 CHARLIE FOXTROT FOUR
-1.2041 CHARLIE FOXTROT ONE
-1.2041 CHARLIE FOXTROT SEVEN
-1.2041 CHARLIE FOXTROT SIX
-1.2041 CHARLIE FOXTROT THREE
-1.2041 CHARLIE FOXTROT TWO
-1.2041 CHARLIE GOLF EIGHT
-1.2041 CHARLIE GOLF FIVE
-1.2041 CHARLIE GOLF FOUR
-1.2041 CHARLIE GOLF ONE
-1.2041 CHARLIE GOLF SEVEN
-1.2041 CHARLIE GOLF SIX
-1.2041 CHARLIE GOLF THREE
-1.2041 CHARLIE GOLF TWO
-1.2041 CHARLIE HOTEL EIGHT
-1.2041 CHARLIE HOTEL FIVE
-1.2041 CHARLIE HOTEL FOUR
-1.2041 CHARLIE HOTEL ONE
-1.2041 CHARLIE HOTEL SEVEN
-1.2041 CHARLIE HOTEL SIX
-1.2041 CHARLIE HOTEL THREE
-1.2041 CHARLIE HOTEL TWO
-0.8934 CHARLIE ONE </s>
-2.2618 CHARLIE ONE ALPHA
-2.2618 CHARLIE ONE BRAVO
-1.4167 CHARLIE ONE CAPTURES
-0.8974 CHARLIE ONE CHECK
-0.8974 CHARLIE ONE CHECKMATE
-2.2618 CHARLIE ONE DELTA
-2.2618 CHARLIE ONE ECHO
-2.2618 CHARLIE ONE FOXTROT
-2.2618 CHARLIE ONE GOLF
-2.2618 CHARLIE ONE HOTEL
-2.4079 CHARLIE ONE PROMOTE
-1.4167 CHARLIE ONE TO
-0.8934 CHARLIE SEVEN </s>
-2.2618 CHARLIE SEVEN ALPHA
-2.2618 CHARLIE SEVEN BRAVO
-1.4167 CHARLIE SEVEN CAPTURES
-0.8974 CHARLIE SEVEN CHECK
-0.8974 CHARLIE SEVEN CHECKMATE
-2.2618 CHARLIE SEVEN DELTA
-2.2618 CHARLIE SEVEN ECHO
-2.2618 CHARLIE SEVEN FOXTROT
-2.2618 CHARLIE SEVEN GOLF
-2.2618 CHARLIE SEVEN HOTEL
-2.4079 CHARLIE SEVEN PROMOTE
-1.4167 CHARLIE SEVEN TO
-0.8934 CHARLIE SIX </s>
-2.2618 CHARLIE SIX ALPHA
-2.2618 CHARLIE SIX BRAVO
-1.4167 CHARLIE SIX CAPTURES
-0.8974 CHARLIE SIX CHECK
-0.8974 CHARLIE SIX CHECKMATE
-2.2618 CHARLIE SIX DELTA
-2.2618 CHARLIE SIX ECHO
-2.2618 CHARLIE SIX FOXTROT
-2.2618 CHARLIE SIX GOLF
-2.2618 CHARLIE SIX HOTEL
-2.4079 CHARLIE SIX PROMOTE
-1.4167 CHARLIE SIX TO
-0.8934 CHARLIE THREE </s>
-2.2618 CHARLIE THREE ALPHA
-2.2618 CHARLIE THREE BRAVO
-1.4167 CHARLIE THREE CAPTURES
-0.8974 CHARLIE THREE CHECK
-0.8974 CHARLIE THREE CHECKMATE
-2.2618 CHARLIE THREE DELTA
-2.2618 CHARLIE THREE ECHO
-2.2618 CHARLIE THREE FOXTROT
-2.2618 CHARLIE THREE GOLF
-2.2618 CHARLIE THREE HOTEL
-2.4079 CHARLIE THREE PROMOTE
-1.4167 CHARLIE THREE TO
-1.1461 CHARLIE TO ALPHA
-1.1461 CHARLIE TO BRAVO
-1.1461 CHARLIE TO DELTA
-1.1461 CHARLIE TO ECHO
-1.1461 CHARLIE TO FOXTROT
-1.1461 CHARLIE TO GOLF
-1.1461 CHARLIE TO HOTEL
-0.8934 CHARLIE TWO </s>
-2.2618 CHARLIE TWO ALPHA
-2.2618 CHARLIE TWO BRAVO
-1.4167 CHARLIE TWO CAPTURES
-0.8974 CHARLIE TWO CHECK
-0.8974 CHARLIE TWO CHECKMATE
-2.2618 CHARLIE TWO DELTA
-2.2618 CHARLIE TWO ECHO
-2.2618 CHARLIE TWO FOXTROT
-2.2618 CHARLIE TWO GOLF
-2.2618 CHARLIE TWO HOTEL
-2.4079 CHARLIE TWO PROMOTE
-1.4167 CHARLIE TWO TO
-1.2041 DELTA ALPHA EIGHT
-1.2041 DELTA ALPHA FIVE
-1.2041 DELTA ALPHA FOUR
-1.2041 DELTA ALPHA ONE
-1.2041 DELTA ALPHA SEVEN
-1.2041 DELTA ALPHA SIX
-1.2041 DELTA ALPHA THREE
-1.2041 DELTA ALPHA TWO
-1.2041 DELTA BRAVO EIGHT
-1.2041 DELTA BRAVO FIVE
-1.2041 DELTA BRAVO FOUR
-1.2041 DELTA BRAVO ONE
-1.2041 DELTA BRAVO SEVEN
-1.2041 DELTA BRAVO SIX
-1.2041 DELTA BRAVO THREE
-1.2041 DELTA BRAVO TWO
-1.3136 DELTA CAPTURES ALPHA
-1.3136 DELTA CAPTURES BRAVO
-1.3136 DELTA CAPTURES CHARLIE
-0.7959 DELTA CAPTURES DELTA
-1.3136 DELTA CAPTURES ECHO
-1.3136 DELTA CAPTURES FOXTROT
-1.3136 DELTA CAPTURES GOLF
-1.3136 DELTA CAPTURES HOTEL
-1.2041 DELTA CHARLIE EIGHT
-1.2041 DELTA CHARLIE FIVE
-1.2041 DELTA CHARLIE FOUR
-1.2041 DELTA CHARLIE ONE
-1.2041 DELTA CHARLIE SEVEN
-1.2041 DELTA CHARLIE SIX
-1.2041 DELTA CHARLIE THREE
-1.2041 DELTA CHARLIE TWO
-1.2041 DELTA ECHO EIGHT
-1.2041 DELTA ECHO FIVE
-1.2041 DELTA ECHO FOUR
-1.2041 DELTA ECHO ONE
-1.2041 DELTA ECHO SEVEN
-1.2041 DELTA ECHO SIX
-1.2041 DELTA ECHO THREE
-1.2041 DELTA ECHO TWO
-0.8934 DELTA EIGHT </s>
-2.2618 DELTA EIGHT ALPHA
-2.2618 DELTA EIGHT BRAVO
-1.4167 DELTA EIGHT CAPTURES
-2.2618 DELTA EIGHT CHARLIE
-0.8974 DELTA EIGHT CHECK
-0.8974 DELTA EIGHT CHECKMATE
-2.2618 DELTA EIGHT ECHO
-2.2618 DELTA EIGHT FOXTROT
-2.2618 DELTA EIGHT GOLF
-2.2618 DELTA EIGHT HOTEL
-2.4079 DELTA EIGHT PROMOTE
-1.4167 DELTA EIGHT TO
-0.8934 DELTA FIVE </s>
-2.2618 DELTA FIVE ALPHA
-2.2618 DELTA FIVE BRAVO
-1.4167 DELTA FIVE CAPTURES
-2.2618 DELTA FIVE CHARLIE
-0.8974 DELTA FIVE CHECK
-0.8974 DELTA FIVE CHECKMATE
-2.2618 DELTA FIVE ECHO
-2.2618 DELTA FIVE FOXTROT
-2.2618 DELTA FIVE GOLF
-2.2618 DELTA FIVE HOTEL
-2.4079 DELTA FIVE PROMOTE
-1.4167 DELTA FIVE TO
-0.8934 DELTA FOUR </s>
-2.2618 DELTA FOUR ALPHA
-2.2618 DELTA FOUR BRAVO
-1.4167 DELTA FOUR CAPTURES
-2.2618 DELTA FOUR CHARLIE
-0.8974 DELTA FOUR CHECK
-0.8974 DELTA FOUR CHECKMATE
-2.2618 DELTA FOUR ECHO
-2.2618 DELTA FOUR FOXTROT
-2.2618 DELTA FOUR GOLF
-2.2618 DELTA FOUR HOTEL
-2.4079 DELTA FOUR PROMOTE
-1.4167 DELTA FOUR TO
-1.2041 DELTA FOXTROT EIGHT
-1.2041 DELTA FOXTROT FIVE
-1.2041 DELTA FOXTROT FOUR
-1.2041 DELTA FOXTROT ONE
-1.2041 DELTA FOXTROT SEVEN
-1.2041 DELTA FOXTROT SIX
-1.2041 DELTA FOXTROT THREE
-1.2041 DELTA FOXTROT TWO
-1.2041 DELTA GOLF EIGHT
-1.2041 DELTA GOLF FIVE
-1.2041 DELTA GOLF FOUR
-1.2041 DELTA GOLF ONE
-1.2041 DELTA GOLF SEVEN
-1.2041 DELTA GOLF SIX
-1.2041 DELTA GOLF THREE
-1.2041 DELTA GOLF TWO
-1.2041 DELTA HOTEL EIGHT
-1.2041 DELTA HOTEL FIVE
-1.2041 DELTA HOTEL FOUR
-1.2041 DELTA HOTEL ONE
-1.2041 DELTA HOTEL SEVEN
-1.2041 DELTA HOTEL SIX
-1.2041 DELTA HOTEL THREE
-1.2041 DELTA HOTEL TWO
-0.8934 DELTA ONE </s>
-2.2618 DELTA ONE ALPHA
-2.2618 DELTA ONE BRAVO
-1.4167 DELTA ONE CAPTURES
-2.2618 DELTA ONE CHARLIE
-0.8974 DELTA ONE CHECK
-0.8974 DELTA ONE CHECKMATE
-2.2618 DELTA ONE ECHO
-2.2618 DELTA ONE FOXTROT
-2.2618 DELTA ONE GOLF
-2.2618 DELTA ONE HOTEL
-2.4079 DELTA ONE PROMOTE
-1.4167 DELTA ONE TO
-0.8934 DELTA SEVEN </s>
-2.2618 DELTA SEVEN ALPHA
-2.2618 DELTA SEVEN BRAVO
-1.4167 DELTA SEVEN CAPTURES
-2.2618 DELTA SEVEN CHARLIE
-0.8974 DELTA SEVEN CHECK
-0.8974 DELTA SEVEN CHECKMATE
-2.2618 DELTA SEVEN ECHO
-2.2618 DELTA SEVEN FOXTROT
-2.2618 DELTA SEVEN GOLF
-2.2618 DELTA SEVEN HOTEL
-2.4079 DELTA SEVEN PROMOTE
-1.4167 DELTA SEVEN TO
-0.8934 DELTA SIX </s>
-2.2618 DELTA SIX ALPHA
-2.2618 DELTA SIX BRAVO
-1.4167 DELTA SIX CAPTURES
-2.2618 DELTA SIX CHARLIE
-0.8974 DELTA SIX CHECK
-0.8974 DELTA SIX CHECKMATE
-2.2618 DELTA SIX ECHO
-2.2618 DELTA SIX FOXTROT
-2.2618 DELTA SIX GOLF
-2.2618 DELTA SIX HOTEL
-2.4079 DELTA SIX PROMOTE
-1.4167 DELTA SIX TO
-0.8934 DELTA THREE </s>
-2.2618 DELTA THREE ALPHA
-2.2618 DELTA THREE BRAVO
-1.4167 DELTA THREE CAPTURES
-2.2618 DELTA THREE CHARLIE
-0.8974 DELTA THREE CHECK
-0.8974 DELTA THREE CHECKMATE
-2.2618 DELTA THREE ECHO
-2.2618 DELTA THREE FOXTROT
-2.2618 DELTA THREE GOLF
-2.2618 DELTA THREE HOTEL
-2.4079 DELTA THREE PROMOTE
-1.4167 DELTA THREE TO
-1.1461 DELTA TO ALPHA
-1.1461 DELTA TO BRAVO
-1.1461 DELTA TO CHARLIE
-1.1461 DELTA TO ECHO
-1.1461 DELTA TO FOXTROT
-1.1461 DELTA TO GOLF
-1.1461 DELTA TO HOTEL
-0.8934 DELTA TWO </s>
-2.2618 DELTA TWO ALPHA
-2.2618 DELTA TWO BRAVO
-1.4167 DELTA TWO CAPTURES
-2.2618 DELTA TWO CHARLIE
-0.8974 DELTA TWO CHECK
-0.8974 DELTA TWO CHECKMATE
-2.2618 DELTA TWO ECHO
-2.2618 DELTA TWO FOXTROT
-2.2618 DELTA TWO GOLF
-2.2618 DELTA TWO HOTEL
-2.4079 DELTA TWO PROMOTE
-1.4167 DELTA TWO TO
-1.2041 ECHO ALPHA EIGHT
-1.2041 ECHO ALPHA FIVE
-1.2041 ECHO ALPHA FOUR
-1.2041 ECHO ALPHA ONE
-1.2041 ECHO ALPHA SEVEN
-1.2041 ECHO ALPHA SIX
-1.2041 ECHO ALPHA THREE
-1.2041 ECHO ALPHA TWO
-1.2041 ECHO BRAVO EIGHT
-1.2041 ECHO BRAVO FIVE
-1.2041 ECHO BRAVO FOUR
-1.2041 ECHO BRAVO ONE
-1.2041 ECHO BRAVO SEVEN
-1.2041 ECHO BRAVO SIX
-1.2041 ECHO BRAVO THREE
-1.2041 ECHO BRAVO TWO
-1.3136 ECHO CAPTURES ALPHA
-1.3136 ECHO CAPTURES BRAVO
-1.3136 ECHO CAPTURES CHARLIE
-1.3136 ECHO CAPTURES DELTA
-0.7959 ECHO CAPTURES ECHO
-1.3136 ECHO CAPTURES FOXTROT
-1.3136 ECHO CAPTURES GOLF
-1.3136 ECHO CAPTURES HOTEL
-1.2041 ECHO CHARLIE EIGHT
-1.2041 ECHO CHARLIE FIVE
-1.2041 ECHO CHARLIE FOUR
-1.2041 ECHO CHARLIE ONE
-1.2041 ECHO CHARLIE SEVEN
-1.2041 ECHO CHARLIE SIX
-1.2041 ECHO CHARLIE THREE
-1.2041 ECHO CHARLIE TWO
-1.2041 ECHO DELTA EIGHT
-1.2041 ECHO DELTA FIVE
-1.2041 ECHO DELTA FOUR
-1.2041 ECHO DELTA ONE
-1.2041 ECHO DELTA SEVEN
-1.2041 ECHO DELTA SIX
-1.2041 ECHO DELTA THREE
-1.2041 ECHO DELTA TWO
-0.8934 ECHO EIGHT </s>
-2.2618 ECHO EIGHT ALPHA
-2.2618 ECHO EIGHT BRAVO
-1.4167 ECHO EIGHT CAPTURES
-2.2618 ECHO EIGHT CHARLIE
-0.8974 ECHO EIGHT CHECK
-0.8974 ECHO EIGHT CHECKMATE
-2.2618 ECHO EIGHT DELTA
-2.2618 ECHO EIGHT FOXTROT
-2.2618 ECHO EIGHT GOLF
-2.2618 ECHO EIGHT HOTEL
-2.4079 ECHO EIGHT PROMOTE
-1.4167 ECHO EIGHT TO
-0.8934 ECHO FIVE </s>
-2.2618 ECHO FIVE ALPHA
-2.2618 ECHO FIVE BRAVO
-1.4167 ECHO FIVE CAPTURES
-2.2618 ECHO FIVE CHARLIE
-0.8974 ECHO FIVE CHECK
-0.8974 ECHO FIVE CHECKMATE
-2.2618 ECHO FIVE DELTA
-2.2618 ECHO FIVE FOXTROT
-2.2618 ECHO FIVE GOLF
-2.2618 ECHO FIVE HOTEL
-2.4079 ECHO FIVE PROMOTE
-1.4167 ECHO FIVE TO
-0.8934 ECHO FOUR </s>
-2.2618 ECHO FOUR ALPHA
-2.2618 ECHO FOUR BRAVO
-1.4167 ECHO FOUR CAPTURES
-2.2618 ECHO FOUR CHARLIE
-0.8974 ECHO FOUR CHECK
-0.8974 ECHO FOUR CHECKMATE
-2.2618 ECHO FOUR DELTA
-2.2618 ECHO FOUR FOXTROT
-2.2618 ECHO FOUR GOLF
-2.2618 ECHO FOUR HOTEL
-2.4079 ECHO FOUR PROMOTE
-1.4167 ECHO FOUR TO
-1.2041 ECHO FOXTROT EIGHT
-1.2041 ECHO FOXTROT FIVE
-1.2041 ECHO FOXTROT FOUR
-1.2041 ECHO FOXTROT ONE
-1.2041 ECHO FOXTROT SEVEN
-1.2041 ECHO FOXTROT SIX
-1.2041 ECHO FOXTROT THREE
-1.2041 ECHO FOXTROT TWO
-1.2041 ECHO GOLF EIGHT
-1.2041 ECHO GOLF FIVE
-1.2041 ECHO GOLF FOUR
-1.2041 ECHO GOLF ONE
-1.2041 ECHO GOLF SEVEN
-1.2041 ECHO GOLF SIX
-1.2041 ECHO GOLF THREE
-1.2041 ECHO GOLF TWO
-1.2041 ECHO HOTEL EIGHT
-1.2041 ECHO HOTEL FIVE
-1.2041 ECHO HOTEL FOUR
-1.2041 ECHO HOTEL ONE
-1.2041 ECHO HOTEL SEVEN
-1.2041 ECHO HOTEL SIX
-1.2041 ECHO HOTEL THREE
-1.2041 ECHO HOTEL TWO
-0.8934 ECHO ONE </s>
-2.2618 ECHO ONE ALPHA
-2.2618 ECHO ONE BRAVO
-1.4167 ECHO ONE CAPTURES
-2.2618 ECHO ONE CHARLIE
-0.8974 ECHO ONE CHECK
-0.8974 ECHO ONE CHECKMATE
-2.2618 ECHO ONE DELTA
-2.2618 ECHO ONE FOXTROT
-2.2618 ECHO ONE GOLF
-2.2618 ECHO ONE HOTEL
-2.4079 ECHO ONE PROMOTE
-1.4167 ECHO ONE TO
-0.8934 ECHO SEVEN </s>
-2.2618 ECHO SEVEN ALPHA
-2.2618 ECHO SEVEN BRAVO
-1.4167 ECHO SEVEN CAPTURES
-2.2618 ECHO SEVEN CHARLIE
-0.8974 ECHO SEVEN CHECK
-0.8974 ECHO SEVEN CHECKMATE
-2.2618 ECHO SEVEN DELTA
-2.2618 ECHO SEVEN FOXTROT
-2.2618 ECHO SEVEN GOLF
-2.2618 ECHO SEVEN HOTEL
-2.4079 ECHO SEVEN PROMOTE
-1.4167 ECHO SEVEN TO
-0.8934 ECHO SIX </s>
-2.2618 ECHO SIX ALPHA
-2.2618 ECHO SIX BRAVO
-1.4167 ECHO SIX CAPTURES
-2.2618 ECHO SIX CHARLIE
-0.8974 ECHO SIX CHECK
-0.8974 ECHO SIX CHECKMATE
-2.2618 ECHO SIX DELTA
-2.2618 ECHO SIX FOXTROT
-2.2618 ECHO SIX GOLF
-2.2618 ECHO SIX HOTEL
-2.4079 ECHO SIX PROMOTE
-1.4167 ECHO SIX TO
-0.8934 ECHO THREE </s>
-2.2618 ECHO THREE ALPHA
-2.2618 ECHO THREE BRAVO
-1.4167 ECHO THREE CAPTURES
-2.2618 ECHO THREE CHARLIE
-0.8974 ECHO THREE CHECK
-0.8974 ECHO THREE CHECKMATE
-2.2618 ECHO THREE DELTA
-2.2618 ECHO THREE FOXTROT
-2.2618 ECHO THREE GOLF
-2.2618 ECHO THREE HOTEL
-2.4079 ECHO THREE PROMOTE
-1.4167 ECHO THREE TO
-1.1461 ECHO TO ALPHA
-1.1461 ECHO TO BRAVO
-1.1461 ECHO TO CHARLIE
-1.1461 ECHO TO DELTA
-1.1461 ECHO TO FOXTROT
-1.1461 ECHO TO GOLF
-1.1461 ECHO TO HOTEL
-0.8934 ECHO TWO </s>
-2.2618 ECHO TWO ALPHA
-2.2618 ECHO TWO BRAVO
-1.4167 ECHO TWO CAPTURES
-2.2618 ECHO TWO CHARLIE
-0.8974 ECHO TWO CHECK
-0.8974 ECHO TWO CHECKMATE
-2.2618 ECHO TWO DELTA
-2.2618 ECHO TWO FOXTROT
-2.2618 ECHO TWO GOLF
-2.2618 ECHO TWO HOTEL
-2.4079 ECHO TWO PROMOTE
-1.4167 ECHO TWO TO
-1.1461 EIGHT ALPHA FIVE
-1.1461 EIGHT ALPHA FOUR
-1.1461 EIGHT ALPHA ONE
-1.1461 EIGHT ALPHA SEVEN
-1.1461 EIGHT ALPHA SIX
-1.1461 EIGHT ALPHA THREE
-1.1461 EIGHT ALPHA TWO
-1.1461 EIGHT BRAVO FIVE
-1.1461 EIGHT BRAVO FOUR
-1.1461 EIGHT BRAVO ONE
-1.1461 EIGHT BRAVO SEVEN
-1.1461 EIGHT BRAVO SIX
-1.1461 EIGHT BRAVO THREE
-1.1461 EIGHT BRAVO TWO
-1.2041 EIGHT CAPTURES ALPHA
-1.2041 EIGHT CAPTURES BRAVO
-1.2041 EIGHT CAPTURES CHARLIE
-1.2041 EIGHT CAPTURES DELTA
-1.2041 EIGHT CAPTURES ECHO
-1.2041 EIGHT CAPTURES FOXTROT
-1.2041 EIGHT CAPTURES GOLF
-1.2041 EIGHT CAPTURES HOTEL
-1.1461 EIGHT CHARLIE FIVE
-1.1461 EIGHT CHARLIE FOUR
-1.1461 EIGHT CHARLIE ONE
-1.1461 EIGHT CHARLIE SEVEN
-1.1461 EIGHT CHARLIE SIX
-1.1461 EIGHT CHARLIE THREE
-1.1461 EIGHT CHARLIE TWO
-0.3010 EIGHT CHECK </s>
-0.3010 EIGHT CHECKMATE </s>
-1.1461 EIGHT DELTA FIVE
-1.1461 EIGHT DELTA FOUR
-1.1461 EIGHT DELTA ONE
-1.1461 EIGHT DELTA SEVEN
-1.1461 EIGHT DELTA SIX
-1.1461 EIGHT DELTA THREE
-1.1461 EIGHT DELTA TWO
-1.1461 EIGHT ECHO FIVE
-1.1461 EIGHT ECHO FOUR
-1.1461 EIGHT ECHO ONE
-1.1461 EIGHT ECHO SEVEN
-1.1461 EIGHT ECHO SIX
-1.1461 EIGHT ECHO THREE
-1.1461 EIGHT ECHO TWO
-1.1461 EIGHT FOXTROT FIVE
-1.1461 EIGHT FOXTROT FOUR
-1.1461 EIGHT FOXTROT ONE
-1.1461 EIGHT FOXTROT SEVEN
-1.1461 EIGHT FOXTROT SIX
-1.1461 EIGHT FOXTROT THREE
-1.1461 EIGHT FOXTROT TWO
-1.1461 EIGHT GOLF FIVE
-1.1461 EIGHT GOLF FOUR
-1.1461 EIGHT GOLF ONE
-1.1461 EIGHT GOLF SEVEN
-1.1461 EIGHT GOLF SIX
-1.1461 EIGHT GOLF THREE
-1.1461 EIGHT GOLF TWO
-1.1461 EIGHT HOTEL FIVE
-1.1461 EIGHT HOTEL FOUR
-1.1461 EIGHT HOTEL ONE
-1.1461 EIGHT HOTEL SEVEN
-1.1461 EIGHT HOTEL SIX
-1.1461 EIGHT HOTEL THREE
-1.1461 EIGHT HOTEL TWO
-0.3010 EIGHT PROMOTE TO
-1.2041 EIGHT TO ALPHA
-1.2041 EIGHT TO BRAVO
-1.2041 EIGHT TO CHARLIE
-1.2041 EIGHT TO DELTA
-1.2041 EIGHT TO ECHO
-1.2041 EIGHT TO FOXTROT
-1.2041 EIGHT TO GOLF
-1.2041 EIGHT TO HOTEL
-1.1461 FIVE ALPHA EIGHT
-1.1461 FIVE ALPHA FOUR
-1.1461 FIVE ALPHA ONE
-1.1461 FIVE ALPHA SEVEN
-1.1461 FIVE ALPHA SIX
-1.1461 FIVE ALPHA THREE
-1.1461 FIVE ALPHA TWO
-1.1461 FIVE BRAVO EIGHT
-1.1461 FIVE BRAVO FOUR
-1.1461 FIVE BRAVO ONE
-1.1461 FIVE BRAVO SEVEN
-1.1461 FIVE BRAVO SIX
-1.1461 FIVE BRAVO THREE
-1.1461 FIVE BRAVO TWO
-1.2041 FIVE CAPTURES ALPHA
-1.2041 FIVE CAPTURES BRAVO
-1.2041 FIVE CAPTURES CHARLIE
-1.2041 FIVE CAPTURES DELTA
-1.2041 FIVE CAPTURES ECHO
-1.2041 FIVE CAPTURES FOXTROT
-1.2041 FIVE CAPTURES GOLF
-1.2041 FIVE CAPTURES HOTEL
-1.1461 FIVE CHARLIE EIGHT
-1.1461 FIVE CHARLIE FOUR
-1.1461 FIVE CHARLIE ONE
-1.1461 FIVE CHARLIE SEVEN
-1.1461 FIVE CHARLIE SIX
-1.1461 FIVE CHARLIE THREE
-1.1461 FIVE CHARLIE TWO
-0.3010 FIVE CHECK </s>
-0.3010 FIVE CHECKMATE </s>
-1.1461 FIVE DELTA EIGHT
-1.1461 FIVE DELTA FOUR
-1.1461 FIVE DELTA ONE
-1.1461 FIVE DELTA SEVEN
-1.1461 FIVE DELTA SIX
-1.1461 FIVE DELTA THREE
-1.1461 FIVE DELTA TWO
-1.1461 FIVE ECHO EIGHT
-1.1461 FIVE ECHO FOUR
-1.1461 FIVE ECHO ONE
-1.1461 FIVE ECHO SEVEN
-1.1461 FIVE ECHO SIX
-1.1461 FIVE ECHO THREE
-1.1461 FIVE ECHO TWO
-1.1461 FIVE FOXTROT EIGHT
-1.1461 FIVE FOXTROT FOUR
-1.1461 FIVE FOXTROT ONE
-1.1461 FIVE FOXTROT SEVEN
-1.1461 FIVE FOXTROT SIX
-1.1461 FIVE FOXTROT THREE
-1.1461 FIVE FOXTROT TWO
-1.1461 FIVE GOLF EIGHT
-1.1461 FIVE GOLF FOUR
-1.1461 FIVE GOLF ONE
-1.1461 FIVE GOLF SEVEN
-1.1461 FIVE GOLF SIX
-1.1461 FIVE GOLF THREE
-1.1461 FIVE GOLF TWO
-1.1461 FIVE HOTEL EIGHT
-1.1461 FIVE HOTEL FOUR
-1.1461 FIVE HOTEL ONE
-1.1461 FIVE HOTEL SEVEN
-1.1461 FIVE HOTEL SIX
-1.1461 FIVE HOTEL THREE
-1.1461 FIVE HOTEL TWO
-0.3010 FIVE PROMOTE TO
-1.2041 FIVE TO ALPHA
-1.2041 FIVE TO BRAVO
-1.2041 FIVE TO CHARLIE
-1.2041 FIVE TO DELTA
-1.2041 FIVE TO ECHO
-1.2041 FIVE TO FOXTROT
-1.2041 FIVE TO GOLF
-1.2041 FIVE TO HOTEL
-1.1461 FOUR ALPHA EIGHT
-1.1461 FOUR ALPHA FIVE
-1.1461 FOUR ALPHA ONE
-1.1461 FOUR ALPHA SEVEN
-1.1461 FOUR ALPHA SIX
-1.1461 FOUR ALPHA THREE
-1.1461 FOUR ALPHA TWO
-1.1461 FOUR BRAVO EIGHT
-1.1461 FOUR BRAVO FIVE
-1.1461 FOUR BRAVO ONE
-1.1461 FOUR BRAVO SEVEN
-1.1461 FOUR BRAVO SIX
-1.1461 FOUR BRAVO THREE
-1.1461 FOUR BRAVO TWO
-1.2041 FOUR CAPTURES ALPHA
-1.2041 FOUR CAPTURES BRAVO
-1.2041 FOUR CAPTURES CHARLIE
-1.2041 FOUR CAPTURES DELTA
-1.2041 FOUR CAPTURES ECHO
-1.2041 FOUR CAPTURES FOXTROT
-1.2041 FOUR CAPTURES GOLF
-1.2041 FOUR CAPTURES HOTEL
-1.1461 FOUR CHARLIE EIGHT
-1.1461 FOUR CHARLIE FIVE
-1.1461 FOUR CHARLIE ONE
-1.1461 FOUR CHARLIE SEVEN
-1.1461 FOUR CHARLIE SIX
-1.1461 FOUR CHARLIE THREE
-1.1461 FOUR CHARLIE TWO
-0.3010 FOUR CHECK </s>
-0.3010 FOUR CHECKMATE </s>
-1.1461 FOUR DELTA EIGHT
-1.1461 FOUR DELTA FIVE
-1.1461 FOUR DELTA ONE
-1.1461 FOUR DELTA SEVEN
-1.1461 FOUR DELTA SIX
-1.1461 FOUR DELTA THREE
-1.1461 FOUR DELTA TWO
-1.1461 FOUR ECHO EIGHT
-1.1461 FOUR ECHO FIVE
-1.1461 FOUR ECHO ONE
-1.1461 FOUR ECHO SEVEN
-1.1461 FOUR ECHO SIX
-1.1461 FOUR ECHO THREE
-1.1461 FOUR ECHO TWO
-1.1461 FOUR FOXTROT EIGHT
-1.1461 FOUR FOXTROT FIVE
-1.1461 FOUR FOXTROT ONE
-1.1461 FOUR FOXTROT SEVEN
-1.1461 FOUR FOXTROT SIX
-1.1461 FOUR FOXTROT THREE
-1.1461 FOUR FOXTROT TWO
-1.1461 FOUR GOLF EIGHT
-1.1461 FOUR GOLF FIVE
-1.1461 FOUR GOLF ONE
-1.1461 FOUR GOLF SEVEN
-1.1461 FOUR GOLF SIX
-1.1461 FOUR GOLF THREE
-1.1461 FOUR GOLF TWO
-1.1461 FOUR HOTEL EIGHT
-1.1461 FOUR HOTEL FIVE
-1.1461 FOUR HOTEL ONE
-1.1461 FOUR HOTEL SEVEN
-1.1461 FOUR HOTEL SIX
-1.1461 FOUR HOTEL THREE
-1.1461 FOUR HOTEL TWO
-0.3010 FOUR PROMOTE TO
-1.2041 FOUR TO ALPHA
-1.2041 FOUR TO BRAVO
-1.2041 FOUR TO CHARLIE
-1.2041 FOUR TO DELTA
-1.2041 FOUR TO ECHO
-1.2041 FOUR TO FOXTROT
-1.2041 FOUR TO GOLF
-1.2041 FOUR TO HOTEL
-1.2041 FOXTROT ALPHA EIGHT
-1.2041 FOXTROT ALPHA FIVE
-1.2041 FOXTROT ALPHA FOUR
-1.2041 FOXTROT ALPHA ONE
-1.2041 FOXTROT ALPHA SEVEN
-1.2041 FOXTROT ALPHA SIX
-1.2041 FOXTROT ALPHA THREE
-1.2041 FOXTROT ALPHA TWO
-1.2041 FOXTROT BRAVO EIGHT
-1.2041 FOXTROT BRAVO FIVE
-1.2041 FOXTROT BRAVO FOUR
-1.2041 FOXTROT BRAVO ONE
-1.2041 FOXTROT BRAVO SEVEN
-1.2041 FOXTROT BRAVO SIX
-1.2041 FOXTROT BRAVO THREE
-1.2041 FOXTROT BRAVO TWO
-1.3136 FOXTROT CAPTURES ALPHA
-1.3136 FOXTROT CAPTURES BRAVO
-1.3136 FOXTROT CAPTURES CHARLIE
-1.3136 FOXTROT CAPTURES DELTA
-1.3136 FOXTROT CAPTURES ECHO
-0.7959 FOXTROT CAPTURES FOXTROT
-1.3136 FOXTROT CAPTURES GOLF
-1.3136 FOXTROT CAPTURES HOTEL
-1.2041 FOXTROT CHARLIE EIGHT
-1.2041 FOXTROT CHARLIE FIVE
-1.2041 FOXTROT CHARLIE FOUR
-1.2041 FOXTROT CHARLIE ONE
-1.2041 FOXTROT CHARLIE SEVEN
-1.2041 FOXTROT CHARLIE SIX
-1.2041 FOXTROT CHARLIE THREE
-1.2041 FOXTROT CHARLIE TWO
-1.2041 FOXTROT DELTA EIGHT
-1.2041 FOXTROT DELTA FIVE
-1.2041 FOXTROT DELTA FOUR
-1.2041 FOXTROT DELTA ONE
-1.2041 FOXTROT DELTA SEVEN
-1.2041 FOXTROT DELTA SIX
-1.2041 FOXTROT DELTA THREE
-1.2041 FOXTROT DELTA TWO
-1.2041 FOXTROT ECHO EIGHT
-1.2041 FOXTROT ECHO FIVE
-1.2041 FOXTROT ECHO FOUR
-1.2041 FOXTROT ECHO ONE
-1.2041 FOXTROT ECHO SEVEN
-1.2041 FOXTROT ECHO SIX
-1.2041 FOXTROT ECHO THREE
-1.2041 FOXTROT ECHO TWO
-0.8934 FOXTROT EIGHT </s>
-2.2618 FOXTROT EIGHT ALPHA
-2.2618 FOXTROT EIGHT BRAVO
-1.4167 FOXTROT EIGHT CAPTURES
-2.2618 FOXTROT EIGHT CHARLIE
-0.8974 FOXTROT EIGHT CHECK
-0.8974 FOXTROT EIGHT CHECKMATE
-2.2618 FOXTROT EIGHT DELTA
-2.2618 FOXTROT EIGHT ECHO
-2.2618 FOXTROT EIGHT GOLF
-2.2618 FOXTROT EIGHT HOTEL
-2.4079 FOXTROT EIGHT PROMOTE
-1.4167 FOXTROT EIGHT TO
-0.8934 FOXTROT FIVE </s>
-2.2618 FOXTROT FIVE ALPHA
-2.2618 FOXTROT FIVE BRAVO
-1.4167 FOXTROT FIVE CAPTURES
-2.2618 FOXTROT FIVE CHARLIE
-0.8974 FOXTROT FIVE CHECK
-0.8974 FOXTROT FIVE CHECKMATE
-2.2618 FOXTROT FIVE DELTA
-2.2618 FOXTROT FIVE ECHO
-2.2618 FOXTROT FIVE GOLF
-2.2618 FOXTROT FIVE HOTEL
-2.4079 FOXTROT FIVE PROMOTE
-1.4167 FOXTROT FIVE TO
-0.8934 FOXTROT FOUR </s>
-2.2618 FOXTROT FOUR ALPHA
-2.2618 FOXTROT FOUR BRAVO
-1.4167 FOXTROT FOUR CAPTURES
-2.2618 FOXTROT FOUR CHARLIE
-0.8974 FOXTROT FOUR CHECK
-0.8974 FOXTROT FOUR CHECKMATE
-2.2618 FOXTROT FOUR DELTA
-2.2618 FOXTROT FOUR ECHO
-2.2618 FOXTROT FOUR GOLF
-2.2618 FOXTROT FOUR HOTEL
-2.4079 FOXTROT FOUR PROMOTE
-1.4167 FOXTROT FOUR TO
-1.2041 FOXTROT GOLF EIGHT
-1.2041 FOXTROT GOLF FIVE
-1.2041 FOXTROT GOLF FOUR
-1.2041 FOXTROT GOLF ONE
-1.2041 FOXTROT GOLF SEVEN
-1.2041 FOXTROT GOLF SIX
-1.2041 FOXTROT GOLF THREE
-1.2041 FOXTROT GOLF TWO
-1.2041 FOXTROT HOTEL EIGHT
-1.2041 FOXTROT HOTEL FIVE
-1.2041 FOXTROT HOTEL FOUR
-1.2041 FOXTROT HOTEL ONE
-1.2041 FOXTROT HOTEL SEVEN
-1.2041 FOXTROT HOTEL SIX
-1.2041 FOXTROT HOTEL THREE
-1.2041 FOXTROT HOTEL TWO
-0.8934 FOXTROT ONE </s>
-2.2618 FOXTROT ONE ALPHA
-2.2618 FOXTROT ONE BRAVO
-1.4167 FOXTROT ONE CAPTURES
-2.2618 FOXTROT ONE CHARLIE
-0.8974 FOXTROT ONE CHECK
-0.8974 FOXTROT ONE CHECKMATE
-2.2618 FOXTROT ONE DELTA
-2.2618 FOXTROT ONE ECHO
-2.2618 FOXTROT ONE GOLF
-2.2618 FOXTROT ONE HOTEL
-2.4079 FOXTROT ONE PROMOTE
-1.4167 FOXTROT ONE TO
-0.8934 FOXTROT SEVEN </s>
-2.2618 FOXTROT SEVEN ALPHA
-2.2618 FOXTROT SEVEN BRAVO
-1.4167 FOXTROT SEVEN CAPTURES
-2.2618 FOXTROT SEVEN CHARLIE
-0.8974 FOXTROT SEVEN CHECK
-0.8974 FOXTROT SEVEN CHECKMATE
-2.2618 FOXTROT SEVEN DELTA
-2.2618 FOXTROT SEVEN ECHO
-2.2618 FOXTROT SEVEN GOLF
-2.2618 FOXTROT SEVEN HOTEL
-2.4079 FOXTROT SEVEN PROMOTE
-1.4167 FOXTROT SEVEN TO
-0.8934 FOXTROT SIX </s>
-2.2618 FOXTROT SIX ALPHA
-2.2618 FOXTROT SIX BRAVO
-1.4167 FOXTROT SIX CAPTURES
-2.2618 FOXTROT SIX CHARLIE
-0.8974 FOXTROT SIX CHECK
-0.8974 FOXTROT SIX CHECKMATE
-2.2618 FOXTROT SIX DELTA
-2.2618 FOXTROT SIX ECHO
-2.2618 FOXTROT SIX GOLF
-2.2618 FOXTROT SIX HOTEL
-2.4079 FOXTROT SIX PROMOTE
-1.4167 FOXTROT SIX TO
-0.8934 FOXTROT THREE </s>
-2.2618 FOXTROT THREE ALPHA
-2.2618 FOXTROT THREE BRAVO
-1.4167 FOXTROT THREE CAPTURES
-2.2618 FOXTROT THREE CHARLIE
-0.8974 FOXTROT THREE CHECK
-0.8974 FOXTROT THREE CHECKMATE
-2.2618 FOXTROT THREE DELTA
-2.2618 FOXTROT THREE ECHO
-2.2618 FOXTROT THREE GOLF
-2.2618 FOXTROT THREE HOTEL
-2.4079 FOXTROT THREE PROMOTE
-1.4167 FOXTROT THREE TO
-1.1461 FOXTROT TO ALPHA
-1.1461 FOXTROT TO BRAVO
-1.1461 FOXTROT TO CHARLIE
-1.1461 FOXTROT TO DELTA
-1.1461 FOXTROT TO ECHO
-1.1461 FOXTROT TO GOLF
-1.1461 FOXTROT TO HOTEL
-0.8934 FOXTROT TWO </s>
-2.2618 FOXTROT TWO ALPHA
-2.2618 FOXTROT TWO BRAVO
-1.4167 FOXTROT TWO CAPTURES
-2.2618 FOXTROT TWO CHARLIE
-0.8974 FOXTROT TWO CHECK
-0.8974 FOXTROT TWO CHECKMATE
-2.2618 FOXTROT TWO DELTA
-2.2618 FOXTROT TWO ECHO
-2.2618 FOXTROT TWO GOLF
-2.2618 FOXTROT TWO HOTEL
-2.4079 FOXTROT TWO PROMOTE
-1.4167 FOXTROT TWO TO
-1.2041 GOLF ALPHA EIGHT
-1.2041 GOLF ALPHA FIVE
-1.2041 GOLF ALPHA FOUR
-1.2041 GOLF ALPHA ONE
-1.2041 GOLF ALPHA SEVEN
-1.2041 GOLF ALPHA SIX
-1.2041 GOLF ALPHA THREE
-1.2041 GOLF ALPHA TWO
-1.2041 GOLF BRAVO EIGHT
-1.2041 GOLF BRAVO FIVE
-1.2041 GOLF BRAVO FOUR
-1.2041 GOLF BRAVO ONE
-1.2041 GOLF BRAVO SEVEN
-1.2041 GOLF BRAVO SIX
-1.2041 GOLF BRAVO THREE
-1.2041 GOLF BRAVO TWO
-1.3136 GOLF CAPTURES ALPHA
-1.3136 GOLF CAPTURES BRAVO
-1.3136 GOLF CAPTURES CHARLIE
-1.3136 GOLF CAPTURES DELTA
-1.3136 GOLF CAPTURES ECHO
-1.3136 GOLF CAPTURES FOXTROT
-0.7959 GOLF CAPTURES GOLF
-1.3136 GOLF CAPTURES HOTEL
-1.2041 GOLF CHARLIE EIGHT
-1.2041 GOLF CHARLIE FIVE
-1.2041 GOLF CHARLIE FOUR
-1.2041 GOLF CHARLIE ONE
-1.2041 GOLF CHARLIE SEVEN
-1.2041 GOLF CHARLIE SIX
-1.2041 GOLF CHARLIE THREE
-1.2041 GOLF CHARLIE TWO
-1.2041 GOLF DELTA EIGHT
-1.2041 GOLF DELTA FIVE
-1.2041 GOLF DELTA FOUR
-1.2041 GOLF DELTA ONE
-1.2041 GOLF DELTA SEVEN
-1.2041 GOLF DELTA SIX
-1.2041 GOLF DELTA THREE
-1.2041 GOLF DELTA TWO
-1.2041 GOLF ECHO EIGHT
-1.2041 GOLF ECHO FIVE
-1.2041 GOLF ECHO FOUR
-1.2041 GOLF ECHO ONE
-1.2041 GOLF ECHO SEVEN
-1.2041 GOLF ECHO SIX
-1.2041 GOLF ECHO THREE
-1.2041 GOLF ECHO TWO
-0.8934 GOLF EIGHT </s>
-2.2618 GOLF EIGHT ALPHA
-2.2618 GOLF EIGHT BRAVO
-1.4167 GOLF EIGHT CAPTURES
-2.2618 GOLF EIGHT CHARLIE
-0.8974 GOLF EIGHT CHECK
-0.8974 GOLF EIGHT CHECKMATE
-2.2618 GOLF EIGHT DELTA
-2.2618 GOLF EIGHT ECHO
-2.2618 GOLF EIGHT FOXTROT
-2.2618 GOLF EIGHT HOTEL
-2.4079 GOLF EIGHT PROMOTE
-1.4167 GOLF EIGHT TO
-0.8934 GOLF FIVE </s>
-2.2618 GOLF FIVE ALPHA
-2.2618 GOLF FIVE BRAVO
-1.4167 GOLF FIVE CAPTURES
-2.2618 GOLF FIVE CHARLIE
-0.8974 GOLF FIVE CHECK
-0.8974 GOLF FIVE CHECKMATE
-2.2618 GOLF FIVE DELTA
-2.2618 GOLF FIVE ECHO
-2.2618 GOLF FIVE FOXTROT
-2.2618 GOLF FIVE HOTEL
-2.4079 GOLF FIVE PROMOTE
-1.4167 GOLF FIVE TO
-0.8934 GOLF FOUR </s>
-2.2618 GOLF FOUR ALPHA
-2.2618 GOLF FOUR BRAVO
-1.4167 GOLF FOUR CAPTURES
-2.2618 GOLF FOUR CHARLIE
-0.8974 GOLF FOUR CHECK
-0.8974 GOLF FOUR CHECKMATE
-2.2618 GOLF FOUR DELTA
-2.2618 GOLF FOUR ECHO
-2.2618 GOLF FOUR FOXTROT
-2.2618 GOLF FOUR HOTEL
-2.4079 GOLF FOUR PROMOTE
-1.4167 GOLF FOUR TO
-1.2041 GOLF FOXTROT EIGHT
-1.2041 GOLF FOXTROT FIVE
-1.2041 GOLF FOXTROT FOUR
-1.2041 GOLF FOXTROT ONE
-1.2041 GOLF FOXTROT SEVEN
-1.2041 GOLF FOXTROT SIX
-1.2041 GOLF FOXTROT THREE
-1.2041 GOLF FOXTROT TWO
-1.2041 GOLF HOTEL EIGHT
-1.2041 GOLF HOTEL FIVE
-1.2041 GOLF HOTEL FOUR
-1.2041 GOLF HOTEL ONE
-1.2041 GOLF HOTEL SEVEN
-1.2041 GOLF HOTEL SIX
-1.2041 GOLF HOTEL THREE
-1.2041 GOLF HOTEL TWO
-0.8934 GOLF ONE </s>
-2.2618 GOLF ONE ALPHA
-2.2618 GOLF ONE BRAVO
-1.4167 GOLF ONE CAPTURES
-2.2618 GOLF ONE CHARLIE
-0.8974 GOLF ONE CHECK
-0.8974 GOLF ONE CHECKMATE
-2.2618 GOLF ONE DELTA
-2.2618 GOLF ONE ECHO
-2.2618 GOLF ONE FOXTROT
-2.2618 GOLF ONE HOTEL
-2.4079 GOLF ONE PROMOTE
-1.4167 GOLF ONE TO
-0.8934 GOLF SEVEN </s>
-2.2618 GOLF SEVEN ALPHA
-2.2618 GOLF SEVEN BRAVO
-1.4167 GOLF SEVEN CAPTURES
-2.2618 GOLF SEVEN CHARLIE
-0.8974 GOLF SEVEN CHECK
-0.8974 GOLF SEVEN CHECKMATE
-2.2618 GOLF SEVEN DELTA
-2.2618 GOLF SEVEN ECHO
-2.2618 GOLF SEVEN FOXTROT
-2.2618 GOLF SEVEN HOTEL
-2.4079 GOLF SEVEN PROMOTE
-1.4167 GOLF SEVEN TO
-0.8934 GOLF SIX </s>
-2.2618 GOLF SIX ALPHA
-2.2618 GOLF SIX BRAVO
-1.4167 GOLF SIX CAPTURES
-2.2618 GOLF SIX CHARLIE
-0.8974 GOLF SIX CHECK
-0.8974 GOLF SIX CHECKMATE
-2.2618 GOLF SIX DELTA
-2.2618 GOLF SIX ECHO
-2.2618 GOLF SIX FOXTROT
-2.2618 GOLF SIX HOTEL
-2.4079 GOLF SIX PROMOTE
-1.4167 GOLF SIX TO
-0.8934 GOLF THREE </s>
-2.2618 GOLF THREE ALPHA
-2.2618 GOLF THREE BRAVO
-1.4167 GOLF THREE CAPTURES
-2.2618 GOLF THREE CHARLIE
-0.8974 GOLF THREE CHECK
-0.8974 GOLF THREE CHECKMATE
-2.2618 GOLF THREE DELTA
-2.2618 GOLF THREE ECHO
-2.2618 GOLF THREE FOXTROT
-2.2618 GOLF THREE HOTEL
-2.4079 GOLF THREE PROMOTE
-1.4167 GOLF THREE TO
-1.1461 GOLF TO ALPHA
-1.1461 GOLF TO BRAVO
-1.1461 GOLF TO CHARLIE
-1.1461 GOLF TO DELTA
-1.1461 GOLF TO ECHO
-1.1461 GOLF TO FOXTROT
-1.1461 GOLF TO HOTEL
-0.8934 GOLF TWO </s>
-2.2618 GOLF TWO ALPHA
-2.2618 GOLF TWO BRAVO
-1.4167 GOLF TWO CAPTURES
-2.2618 GOLF TWO CHARLIE
-0.8974 GOLF TWO CHECK
-0.8974 GOLF TWO CHECKMATE
-2.2618 GOLF TWO DELTA
-2.2618 GOLF TWO ECHO
-2.2618 GOLF TWO FOXTROT
-2.2618 GOLF TWO HOTEL
-2.4079 GOLF TWO PROMOTE
-1.4167 GOLF TWO TO
-1.2041 HOTEL ALPHA EIGHT
-1.2041 HOTEL ALPHA FIVE
-1.2041 HOTEL ALPHA FOUR
-1.2041 HOTEL ALPHA ONE
-1.2041 HOTEL ALPHA SEVEN
-1.2041 HOTEL ALPHA SIX
-1.2041 HOTEL ALPHA THREE
-1.2041 HOTEL ALPHA TWO
-1.2041 HOTEL BRAVO EIGHT
-1.2041 HOTEL BRAVO FIVE
-1.2041 HOTEL BRAVO FOUR
-1.2041 HOTEL BRAVO ONE
-1.2041 HOTEL BRAVO SEVEN
-1.2041 HOTEL BRAVO SIX
-1.2041 HOTEL BRAVO THREE
-1.2041 HOTEL BRAVO TWO
-1.3136 HOTEL CAPTURES ALPHA
-1.3136 HOTEL CAPTURES BRAVO
-1.3136 HOTEL CAPTURES CHARLIE
-1.3136 HOTEL CAPTURES DELTA
-1.3136 HOTEL CAPTURES ECHO
-1.3136 HOTEL CAPTURES FOXTROT
-1.3136 HOTEL CAPTURES GOLF
-0.7959 HOTEL CAPTURES HOTEL
-1.2041 HOTEL CHARLIE EIGHT
-1.2041 HOTEL CHARLIE FIVE
-1.2041 HOTEL CHARLIE FOUR
-1.2041 HOTEL CHARLIE ONE
-1.2041 HOTEL CHARLIE SEVEN
-1.2041 HOTEL CHARLIE SIX
-1.2041 HOTEL CHARLIE THREE
-1.2041 HOTEL CHARLIE TWO
-1.2041 HOTEL DELTA EIGHT
-1.2041 HOTEL DELTA FIVE
-1.2041 HOTEL DELTA FOUR
-1.2041 HOTEL DELTA ONE
-1.2041 HOTEL DELTA SEVEN
-1.2041 HOTEL DELTA SIX
-1.2041 HOTEL DELTA THREE
-1.2041 HOTEL DELTA TWO
-1.2041 HOTEL ECHO EIGHT
-1.2041 HOTEL ECHO FIVE
-1.2041 HOTEL ECHO FOUR
-1.2041 HOTEL ECHO ONE
-1.2041 HOTEL ECHO SEVEN
-1.2041 HOTEL ECHO SIX
-1.2041 HOTEL ECHO THREE
-1.2041 HOTEL ECHO TWO
-0.8934 HOTEL EIGHT </s>
-2.2618 HOTEL EIGHT ALPHA
-2.2618 HOTEL EIGHT BRAVO
-1.4167 HOTEL EIGHT CAPTURES
-2.2618 HOTEL EIGHT CHARLIE
-0.8974 HOTEL EIGHT CHECK
-0.8974 HOTEL EIGHT CHECKMATE
-2.2618 HOTEL EIGHT DELTA
-2.2618 HOTEL EIGHT ECHO
-2.2618 HOTEL EIGHT FOXTROT
-2.2618 HOTEL EIGHT GOLF
-2.4079 HOTEL EIGHT PROMOTE
-1.4167 HOTEL EIGHT TO
-0.8934 HOTEL FIVE </s>
-2.2618 HOTEL FIVE ALPHA
-2.2618 HOTEL FIVE BRAVO
-1.4167 HOTEL FIVE CAPTURES
-2.2618 HOTEL FIVE CHARLIE
-0.8974 HOTEL FIVE CHECK
-0.8974 HOTEL FIVE CHECKMATE
-2.2618 HOTEL FIVE DELTA
-2.2618 HOTEL FIVE ECHO
-2.2618 HOTEL FIVE FOXTROT
-2.2618 HOTEL FIVE GOLF
-2.4079 HOTEL FIVE PROMOTE
-1.4167 HOTEL FIVE TO
-0.8934 HOTEL FOUR </s>
-2.2618 HOTEL FOUR ALPHA
-2.2618 HOTEL FOUR BRAVO
-1.4167 HOTEL FOUR CAPTURES
-2.2618 HOTEL FOUR CHARLIE
-0.8974 HOTEL FOUR CHECK
-0.8974 HOTEL FOUR CHECKMATE
-2.2618 HOTEL FOUR DELTA
-2.2618 HOTEL FOUR ECHO
-2.2618 HOTEL FOUR FOXTROT
-2.2618 HOTEL FOUR GOLF
-2.4079 HOTEL FOUR PROMOTE
-1.4167 HOTEL FOUR TO
-1.2041 HOTEL FOXTROT EIGHT
-1.2041 HOTEL FOXTROT FIVE
-1.2041 HOTEL FOXTROT FOUR
-1.2041 HOTEL FOXTROT ONE
-1.2041 HOTEL FOXTROT SEVEN
-1.2041 HOTEL FOXTROT SIX
-1.2041 HOTEL FOXTROT THREE
-1.2041 HOTEL FOXTROT TWO
-1.2041 HOTEL GOLF EIGHT
-1.2041 HOTEL GOLF FIVE
-1.2041 HOTEL GOLF FOUR
-1.2041 HOTEL GOLF ONE
-1.2041 HOTEL GOLF SEVEN
-1.2041 HOTEL GOLF SIX
-1.2041 HOTEL GOLF THREE
-1.2041 HOTEL GOLF TWO
-0.8934 HOTEL ONE </s>
-2.2618 HOTEL ONE ALPHA
-2.2618 HOTEL ONE BRAVO
-1.4167 HOTEL ONE CAPTURES
-2.2618 HOTEL ONE CHARLIE
-0.8974 HOTEL ONE CHECK
-0.8974 HOTEL ONE CHECKMATE
-2.2618 HOTEL ONE DELTA
-2.2618 HOTEL ONE ECHO
-2.2618 HOTEL ONE FOXTROT
-2.2618 HOTEL ONE GOLF
-2.4079 HOTEL ONE PROMOTE
-1.4167 HOTEL ONE TO
-0.8934 HOTEL SEVEN </s>
-2.2618 HOTEL SEVEN ALPHA
-2.2618 HOTEL SEVEN BRAVO
-1.4167 HOTEL SEVEN CAPTURES
-2.2618 HOTEL SEVEN CHARLIE
-0.8974 HOTEL SEVEN CHECK
-0.8974 HOTEL SEVEN CHECKMATE
-2.2618 HOTEL SEVEN DELTA
-2.2618 HOTEL SEVEN ECHO
-2.2618 HOTEL SEVEN FOXTROT
-2.2618 HOTEL SEVEN GOLF
-2.4079 HOTEL SEVEN PROMOTE
-1.4167 HOTEL SEVEN TO
-0.8934 HOTEL SIX </s>
-2.2618 HOTEL SIX ALPHA
-2.2618 HOTEL SIX BRAVO
-1.4167 HOTEL SIX CAPTURES
-2.2618 HOTEL SIX CHARLIE
-0.8974 HOTEL SIX CHECK
-0.8974 HOTEL SIX CHECKMATE
-2.2618 HOTEL SIX DELTA
-2.2618 HOTEL SIX ECHO
-2.2618 HOTEL SIX FOXTROT
-2.2618 HOTEL SIX GOLF
-2.4079 HOTEL SIX PROMOTE
-1.4167 HOTEL SIX TO
-0.8934 HOTEL THREE </s>
-2.2618 HOTEL THREE ALPHA
-2.2618 HOTEL THREE BRAVO
-1.4167 HOTEL THREE CAPTURES
-2.2618 HOTEL THREE CHARLIE
-0.8974 HOTEL THREE CHECK
-0.8974 HOTEL THREE CHECKMATE
-2.2618 HOTEL THREE DELTA
-2.2618 HOTEL THREE ECHO
-2.2618 HOTEL THREE FOXTROT
-2.2618 HOTEL THREE GOLF
-2.4079 HOTEL THREE PROMOTE
-1.4167 HOTEL THREE TO
-1.1461 HOTEL TO ALPHA
-1.1461 HOTEL TO BRAVO
-1.1461 HOTEL TO CHARLIE
-1.1461 HOTEL TO DELTA
-1.1461 HOTEL TO ECHO
-1.1461 HOTEL TO FOXTROT
-1.1461 HOTEL TO GOLF
-0.8934 HOTEL TWO </s>
-2.2618 HOTEL TWO ALPHA
-2.2618 HOTEL TWO BRAVO
-1.4167 HOTEL TWO CAPTURES
-2.2618 HOTEL TWO CHARLIE
-0.8974 HOTEL TWO CHECK
-0.8974 HOTEL TWO CHECKMATE
-2.2618 HOTEL TWO DELTA
-2.2618 HOTEL TWO ECHO
-2.2618 HOTEL TWO FOXTROT
-2.2618 HOTEL TWO GOLF
-2.4079 HOTEL TWO PROMOTE
-1.4167 HOTEL TWO TO
-1.2041 KING ALPHA EIGHT
-1.2041 KING ALPHA FIVE
-1.2041 KING ALPHA FOUR
-1.2041 KING ALPHA ONE
-1.2041 KING ALPHA SEVEN
-1.2041 KING ALPHA SIX
-1.2041 KING ALPHA THREE
-1.2041 KING ALPHA TWO
-1.2041 KING BRAVO EIGHT
-1.2041 KING BRAVO FIVE
-1.2041 KING BRAVO FOUR
-1.2041 KING BRAVO ONE
-1.2041 KING BRAVO SEVEN
-1.2041 KING BRAVO SIX
-1.2041 KING BRAVO THREE
-1.2041 KING BRAVO TWO
-1.2041 KING CAPTURES ALPHA
-1.2041 KING CAPTURES BRAVO
-1.2041 KING CAPTURES CHARLIE
-1.2041 KING CAPTURES DELTA
-1.2041 KING CAPTURES ECHO
-1.2041 KING CAPTURES FOXTROT
-1.2041 KING CAPTURES GOLF
-1.2041 KING CAPTURES HOTEL
-1.2041 KING CHARLIE EIGHT
-1.2041 KING CHARLIE FIVE
-1.2041 KING CHARLIE FOUR
-1.2041 KING CHARLIE ONE
-1.2041 KING CHARLIE SEVEN
-1.2041 KING CHARLIE SIX
-1.2041 KING CHARLIE THREE
-1.2041 KING CHARLIE TWO
-1.2041 KING DELTA EIGHT
-1.2041 KING DELTA FIVE
-1.2041 KING DELTA FOUR
-1.2041 KING DELTA ONE
-1.2041 KING DELTA SEVEN
-1.2041 KING DELTA SIX
-1.2041 KING DELTA THREE
-1.2041 KING DELTA TWO
-1.2041 KING ECHO EIGHT
-1.2041 KING ECHO FIVE
-1.2041 KING ECHO FOUR
-1.2041 KING ECHO ONE
-1.2041 KING ECHO SEVEN
-1.2041 KING ECHO SIX
-1.2041 KING ECHO THREE
-1.2041 KING ECHO TWO
-1.2041 KING FOXTROT EIGHT
-1.2041 KING FOXTROT FIVE
-1.2041 KING FOXTROT FOUR
-1.2041 KING FOXTROT ONE
-1.2041 KING FOXTROT SEVEN
-1.2041 KING FOXTROT SIX
-1.2041 KING FOXTROT THREE
-1.2041 KING FOXTROT TWO
-1.2041 KING GOLF EIGHT
-1.2041 KING GOLF FIVE
-1.2041 KING GOLF FOUR
-1.2041 KING GOLF ONE
-1.2041 KING GOLF SEVEN
-1.2041 KING GOLF SIX
-1.2041 KING GOLF THREE
-1.2041 KING GOLF TWO
-1.2041 KING HOTEL EIGHT
-1.2041 KING HOTEL FIVE
-1.2041 KING HOTEL FOUR
-1.2041 KING HOTEL ONE
-1.2041 KING HOTEL SEVEN
-1.2041 KING HOTEL SIX
-1.2041 KING HOTEL THREE
-1.2041 KING HOTEL TWO
-1.2041 KING TO ALPHA
-1.2041 KING TO BRAVO
-1.2041 KING TO CHARLIE
-1.2041 KING TO DELTA
-1.2041 KING TO ECHO
-1.2041 KING TO FOXTROT
-1.2041 KING TO GOLF
-1.2041 KING TO HOTEL
-0.3010 KINGSIDE CASTLING </s>
-1.8976 KNIGHT ALPHA BRAVO
-1.0525 KNIGHT ALPHA CAPTURES
-1.8976 KNIGHT ALPHA CHARLIE
-1.8976 KNIGHT ALPHA DELTA
-1.8976 KNIGHT ALPHA ECHO
-1.5335 KNIGHT ALPHA EIGHT
-1.5335 KNIGHT ALPHA FIVE
-1.5335 KNIGHT ALPHA FOUR
-1.8976 KNIGHT ALPHA FOXTROT
-1.8976 KNIGHT ALPHA GOLF
-1.8976 KNIGHT ALPHA HOTEL
-1.5335 KNIGHT ALPHA ONE
-1.5335 KNIGHT ALPHA SEVEN
-1.5335 KNIGHT ALPHA SIX
-1.5335 KNIGHT ALPHA THREE
-1.0525 KNIGHT ALPHA TO
-1.5335 KNIGHT ALPHA TWO
-1.8976 KNIGHT BRAVO ALPHA
-1.0525 KNIGHT BRAVO CAPTURES
-1.8976 KNIGHT BRAVO CHARLIE
-1.8976 KNIGHT BRAVO DELTA
-1.8976 KNIGHT BRAVO ECHO
-1.5335 KNIGHT BRAVO EIGHT
-1.5335 KNIGHT BRAVO FIVE
-1.5335 KNIGHT BRAVO FOUR
-1.8976 KNIGHT BRAVO FOXTROT
-1.8976 KNIGHT BRAVO GOLF
-1.8976 KNIGHT BRAVO HOTEL
-1.5335 KNIGHT BRAVO ONE
-1.5335 KNIGHT BRAVO SEVEN
-1.5335 KNIGHT BRAVO SIX
-1.5335 KNIGHT BRAVO THREE
-1.0525 KNIGHT BRAVO TO
-1.5335 KNIGHT BRAVO TWO
-1.2041 KNIGHT CAPTURES ALPHA
-1.2041 KNIGHT CAPTURES BRAVO
-1.2041 KNIGHT CAPTURES CHARLIE
-1.2041 KNIGHT CAPTURES DELTA
-1.2041 KNIGHT CAPTURES ECHO
-1.2041 KNIGHT CAPTURES FOXTROT
-1.2041 KNIGHT CAPTURES GOLF
-1.2041 KNIGHT CAPTURES HOTEL
-1.8976 KNIGHT CHARLIE ALPHA
-1.8976 KNIGHT CHARLIE BRAVO
-1.0525 KNIGHT CHARLIE CAPTURES
-1.8976 KNIGHT CHARLIE DELTA
-1.8976 KNIGHT CHARLIE ECHO
-1.5335 KNIGHT CHARLIE EIGHT
-1.5335 KNIGHT CHARLIE FIVE
-1.5335 KNIGHT CHARLIE FOUR
-1.8976 KNIGHT CHARLIE FOXTROT
-1.8976 KNIGHT CHARLIE GOLF
-1.8976 KNIGHT CHARLIE HOTEL
-1.5335 KNIGHT CHARLIE ONE
-1.5335 KNIGHT CHARLIE SEVEN
-1.5335 KNIGHT CHARLIE SIX
-1.5335 KNIGHT CHARLIE THREE
-1.0525 KNIGHT CHARLIE TO
-1.5335 KNIGHT CHARLIE TWO
-1.8976 KNIGHT DELTA ALPHA
-1.8976 KNIGHT DELTA BRAVO
-1.0525 KNIGHT DELTA CAPTURES
-1.8976 KNIGHT DELTA CHARLIE
-1.8976 KNIGHT DELTA ECHO
-1.5335 KNIGHT DELTA EIGHT
-1.5335 KNIGHT DELTA FIVE
-1.5335 KNIGHT DELTA FOUR
-1.8976 KNIGHT DELTA FOXTROT
-1.8976 KNIGHT DELTA GOLF
-1.8976 KNIGHT DELTA HOTEL
-1.5335 KNIGHT DELTA ONE
-1.5335 KNIGHT DELTA SEVEN
-1.5335 KNIGHT DELTA SIX
-1.5335 KNIGHT DELTA THREE
-1.0525 KNIGHT DELTA TO
-1.5335 KNIGHT DELTA TWO
-1.8976 KNIGHT ECHO ALPHA
-1.8976 KNIGHT ECHO BRAVO
-1.0525 KNIGHT ECHO CAPTURES
-1.8976 KNIGHT ECHO CHARLIE
-1.8976 KNIGHT ECHO DELTA
-1.5335 KNIGHT ECHO EIGHT
-1.5335 KNIGHT ECHO FIVE
-1.5335 KNIGHT ECHO FOUR
-1.8976 KNIGHT ECHO FOXTROT
-1.8976 KNIGHT ECHO GOLF
-1.8976 KNIGHT ECHO HOTEL
-1.5335 KNIGHT ECHO ONE
-1.5335 KNIGHT ECHO SEVEN
-1.5335 KNIGHT ECHO SIX
-1.5335 KNIGHT ECHO THREE
-1.0525 KNIGHT ECHO TO
-1.5335 KNIGHT ECHO TWO
-1.6812 KNIGHT EIGHT ALPHA
-1.6812 KNIGHT EIGHT BRAVO
-0.7782 KNIGHT EIGHT CAPTURES
-1.6812 KNIGHT EIGHT CHARLIE
-1.6812 KNIGHT EIGHT DELTA
-1.6812 KNIGHT EIGHT ECHO
-1.6812 KNIGHT EIGHT FOXTROT
-1.6812 KNIGHT EIGHT GOLF
-1.6812 KNIGHT EIGHT HOTEL
-0.7782 KNIGHT EIGHT TO
-1.6812 KNIGHT FIVE ALPHA
-1.6812 KNIGHT FIVE BRAVO
-0.7782 KNIGHT FIVE CAPTURES
-1.6812 KNIGHT FIVE CHARLIE
-1.6812 KNIGHT FIVE DELTA
-1.6812 KNIGHT FIVE ECHO
-1.6812 KNIGHT FIVE FOXTROT
-1.6812 KNIGHT FIVE GOLF
-1.6812 KNIGHT FIVE HOTEL
-0.7782 KNIGHT FIVE TO
-1.6812 KNIGHT FOUR ALPHA
-1.6812 KNIGHT FOUR BRAVO
-0.7782 KNIGHT FOUR CAPTURES
-1.6812 KNIGHT FOUR CHARLIE
-1.6812 KNIGHT FOUR DELTA
-1.6812 KNIGHT FOUR ECHO
-1.6812 KNIGHT FOUR FOXTROT
-1.6812 KNIGHT FOUR GOLF
-1.6812 KNIGHT FOUR HOTEL
-0.7782 KNIGHT FOUR TO
-1.8976 KNIGHT FOXTROT ALPHA
-1.8976 KNIGHT FOXTROT BRAVO
-1.0525 KNIGHT FOXTROT CAPTURES
-1.8976 KNIGHT FOXTROT CHARLIE
-1.8976 KNIGHT FOXTROT DELTA
-1.8976 KNIGHT FOXTROT ECHO
-1.5335 KNIGHT FOXTROT EIGHT
-1.5335 KNIGHT FOXTROT FIVE
-1.5335 KNIGHT FOXTROT FOUR
-1.8976 KNIGHT FOXTROT GOLF
-1.8976 KNIGHT FOXTROT HOTEL
-1.5335 KNIGHT FOXTROT ONE
-1.5335 KNIGHT FOXTROT SEVEN
-1.5335 KNIGHT FOXTROT SIX
-1.5335 KNIGHT FOXTROT THREE
-1.0525 KNIGHT FOXTROT TO
-1.5335 KNIGHT FOXTROT TWO
-1.8976 KNIGHT GOLF ALPHA
-1.8976 KNIGHT GOLF BRAVO
-1.0525 KNIGHT GOLF CAPTURES
-1.8976 KNIGHT GOLF CHARLIE
-1.8976 KNIGHT GOLF DELTA
-1.8976 KNIGHT GOLF ECHO
-1.5335 KNIGHT GOLF EIGHT
-1.5335 KNIGHT GOLF FIVE
-1.5335 KNIGHT GOLF FOUR
-1.8976 KNIGHT GOLF FOXTROT
-1.8976 KNIGHT GOLF HOTEL
-1.5335 KNIGHT GOLF ONE
-1.5335 KNIGHT GOLF SEVEN
-1.5335 KNIGHT GOLF SIX
-1.5335 KNIGHT GOLF THREE
-1.0525 KNIGHT GOLF TO
-1.5335 KNIGHT GOLF TWO
-1.8976 KNIGHT HOTEL ALPHA
-1.8976 KNIGHT HOTEL BRAVO
-1.0525 KNIGHT HOTEL CAPTURES
-1.8976 KNIGHT HOTEL CHARLIE
-1.8976 KNIGHT HOTEL DELTA
-1.8976 KNIGHT HOTEL ECHO
-1.5335 KNIGHT HOTEL EIGHT
-1.5335 KNIGHT HOTEL FIVE
-1.5335 KNIGHT HOTEL FOUR
-1.8976 KNIGHT HOTEL FOXTROT
-1.8976 KNIGHT HOTEL GOLF
-1.5335 KNIGHT HOTEL ONE
-1.5335 KNIGHT HOTEL SEVEN
-1.5335 KNIGHT HOTEL SIX
-1.5335 KNIGHT HOTEL THREE
-1.0525 KNIGHT HOTEL TO
-1.5335 KNIGHT HOTEL TWO
-1.6812 KNIGHT ONE ALPHA
-1.6812 KNIGHT ONE BRAVO
-0.7782 KNIGHT ONE CAPTURES
-1.6812 KNIGHT ONE CHARLIE
-1.6812 KNIGHT ONE DELTA
-1.6812 KNIGHT ONE ECHO
-1.6812 KNIGHT ONE FOXTROT
-1.6812 KNIGHT ONE GOLF
-1.6812 KNIGHT ONE HOTEL
-0.7782 KNIGHT ONE TO
-1.6812 KNIGHT SEVEN ALPHA
-1.6812 KNIGHT SEVEN BRAVO
-0.7782 KNIGHT SEVEN CAPTURES
-1.6812 KNIGHT SEVEN CHARLIE
-1.6812 KNIGHT SEVEN DELTA
-1.6812 KNIGHT SEVEN ECHO
-1.6812 KNIGHT SEVEN FOXTROT
-1.6812 KNIGHT SEVEN GOLF
-1.6812 KNIGHT SEVEN HOTEL
-0.7782 KNIGHT SEVEN TO
-1.6812 KNIGHT SIX ALPHA
-1.6812 KNIGHT SIX BRAVO
-0.7782 KNIGHT SIX CAPTURES
-1.6812 KNIGHT SIX CHARLIE
-1.6812 KNIGHT SIX DELTA
-1.6812 KNIGHT SIX ECHO
-1.6812 KNIGHT SIX FOXTROT
-1.6812 KNIGHT SIX GOLF
-1.6812 KNIGHT SIX HOTEL
-0.7782 KNIGHT SIX TO
-1.6812 KNIGHT THREE ALPHA
-1.6812 KNIGHT THREE BRAVO
-0.7782 KNIGHT THREE CAPTURES
-1.6812 KNIGHT THREE CHARLIE
-1.6812 KNIGHT THREE DELTA
-1.6812 KNIGHT THREE ECHO
-1.6812 KNIGHT THREE FOXTROT
-1.6812 KNIGHT THREE GOLF
-1.6812 KNIGHT THREE HOTEL
-0.7782 KNIGHT THREE TO
-1.2041 KNIGHT TO ALPHA
-1.2041 KNIGHT TO BRAVO
-1.2041 KNIGHT TO CHARLIE
-1.2041 KNIGHT TO DELTA
-1.2041 KNIGHT TO ECHO
-1.2041 KNIGHT TO FOXTROT
-1.2041 KNIGHT TO GOLF
-1.2041 KNIGHT TO HOTEL
-1.6812 KNIGHT TWO ALPHA
-1.6812 KNIGHT TWO BRAVO
-0.7782 KNIGHT TWO CAPTURES
-1.6812 KNIGHT TWO CHARLIE
-1.6812 KNIGHT TWO DELTA
-1.6812 KNIGHT TWO ECHO
-1.6812 KNIGHT TWO FOXTROT
-1.6812 KNIGHT TWO GOLF
-1.6812 KNIGHT TWO HOTEL
-0.7782 KNIGHT TWO TO
-1.1461 ONE ALPHA EIGHT
-1.1461 ONE ALPHA FIVE
-1.1461 ONE ALPHA FOUR
-1.1461 ONE ALPHA SEVEN
-1.1461 ONE ALPHA SIX
-1.1461 ONE ALPHA THREE
-1.1461 ONE ALPHA TWO
-1.1461 ONE BRAVO EIGHT
-1.1461 ONE BRAVO FIVE
-1.1461 ONE BRAVO FOUR
-1.1461 ONE BRAVO SEVEN
-1.1461 ONE BRAVO SIX
-1.1461 ONE BRAVO THREE
-1.1461 ONE BRAVO TWO
-1.2041 ONE CAPTURES ALPHA
-1.2041 ONE CAPTURES BRAVO
-1.2041 ONE CAPTURES CHARLIE
-1.2041 ONE CAPTURES DELTA
-1.2041 ONE CAPTURES ECHO
-1.2041 ONE CAPTURES FOXTROT
-1.2041 ONE CAPTURES GOLF
-1.2041 ONE CAPTURES HOTEL
-1.1461 ONE CHARLIE EIGHT
-1.1461 ONE CHARLIE FIVE
-1.1461 ONE CHARLIE FOUR
-1.1461 ONE CHARLIE SEVEN
-1.1461 ONE CHARLIE SIX
-1.1461 ONE CHARLIE THREE
-1.1461 ONE CHARLIE TWO
-0.3010 ONE CHECK </s>
-0.3010 ONE CHECKMATE </s>
-1.1461 ONE DELTA EIGHT
-1.1461 ONE DELTA FIVE
-1.1461 ONE DELTA FOUR
-1.1461 ONE DELTA SEVEN
-1.1461 ONE DELTA SIX
-1.1461 ONE DELTA THREE
-1.1461 ONE DELTA TWO
-1.1461 ONE ECHO EIGHT
-1.1461 ONE ECHO FIVE
-1.1461 ONE ECHO FOUR
-1.1461 ONE ECHO SEVEN
-1.1461 ONE ECHO SIX
-1.1461 ONE ECHO THREE
-1.1461 ONE ECHO TWO
-1.1461 ONE FOXTROT EIGHT
-1.1461 ONE FOXTROT FIVE
-1.1461 ONE FOXTROT FOUR
-1.1461 ONE FOXTROT SEVEN
-1.1461 ONE FOXTROT SIX
-1.1461 ONE FOXTROT THREE
-1.1461 ONE FOXTROT TWO
-1.1461 ONE GOLF EIGHT
-1.1461 ONE GOLF FIVE
-1.1461 ONE GOLF FOUR
-1.1461 ONE GOLF SEVEN
-1.1461 ONE GOLF SIX
-1.1461 ONE GOLF THREE
-1.1461 ONE GOLF TWO
-1.1461 ONE HOTEL EIGHT
-1.1461 ONE HOTEL FIVE
-1.1461 ONE HOTEL FOUR
-1.1461 ONE HOTEL SEVEN
-1.1461 ONE HOTEL SIX
-1.1461 ONE HOTEL THREE
-1.1461 ONE HOTEL TWO
-0.3010 ONE PROMOTE TO
-1.2041 ONE TO ALPHA
-1.2041 ONE TO BRAVO
-1.2041 ONE TO CHARLIE
-1.2041 ONE TO DELTA
-1.2041 ONE TO ECHO
-1.2041 ONE TO FOXTROT
-1.2041 ONE TO GOLF
-1.2041 ONE TO HOTEL
-0.9031 PROMOTE TO BISHOP
-0.9031 PROMOTE TO KNIGHT
-0.9031 PROMOTE TO QUEEN
-0.9031 PROMOTE TO ROOK
-1.8976 QUEEN ALPHA BRAVO
-1.0525 QUEEN ALPHA CAPTURES
-1.8976 QUEEN ALPHA CHARLIE
-1.8976 QUEEN ALPHA DELTA
-1.8976 QUEEN ALPHA ECHO
-1.5335 QUEEN ALPHA EIGHT
-1.5335 QUEEN ALPHA FIVE
-1.5335 QUEEN ALPHA FOUR
-1.8976 QUEEN ALPHA FOXTROT
-1.8976 QUEEN ALPHA GOLF
-1.8976 QUEEN ALPHA HOTEL
-1.5335 QUEEN ALPHA ONE
-1.5335 QUEEN ALPHA SEVEN
-1.5335 QUEEN ALPHA SIX
-1.5335 QUEEN ALPHA THREE
-1.0525 QUEEN ALPHA TO
-1.5335 QUEEN ALPHA TWO
-1.8976 QUEEN BRAVO ALPHA
-1.0525 QUEEN BRAVO CAPTURES
-1.8976 QUEEN BRAVO CHARLIE
-1.8976 QUEEN BRAVO DELTA
-1.8976 QUEEN BRAVO ECHO
-1.5335 QUEEN BRAVO EIGHT
-1.5335 QUEEN BRAVO FIVE
-1.5335 QUEEN BRAVO FOUR
-1.8976 QUEEN BRAVO FOXTROT
-1.8976 QUEEN BRAVO GOLF
-1.8976 QUEEN BRAVO HOTEL
-1.5335 QUEEN BRAVO ONE
-1.5335 QUEEN BRAVO SEVEN
-1.5335 QUEEN BRAVO SIX
-1.5335 QUEEN BRAVO THREE
-1.0525 QUEEN BRAVO TO
-1.5335 QUEEN BRAVO TWO
-1.2041 QUEEN CAPTURES ALPHA
-1.2041 QUEEN CAPTURES BRAVO
-1.2041 QUEEN CAPTURES CHARLIE
-1.2041 QUEEN CAPTURES DELTA
-1.2041 QUEEN CAPTURES ECHO
-1.2041 QUEEN CAPTURES FOXTROT
-1.2041 QUEEN CAPTURES GOLF
-1.2041 QUEEN CAPTURES HOTEL
-1.8976 QUEEN CHARLIE ALPHA
-1.8976 QUEEN CHARLIE BRAVO
-1.0525 QUEEN CHARLIE CAPTURES
-1.8976 QUEEN CHARLIE DELTA
-1.8976 QUEEN CHARLIE ECHO
-1.5335 QUEEN CHARLIE EIGHT
-1.5335 QUEEN CHARLIE FIVE
-1.5335 QUEEN CHARLIE FOUR
-1.8976 QUEEN CHARLIE FOXTROT
-1.8976 QUEEN CHARLIE GOLF
-1.8976 QUEEN CHARLIE HOTEL
-1.5335 QUEEN CHARLIE ONE
-1.5335 QUEEN CHARLIE SEVEN
-1.5335 QUEEN CHARLIE SIX
-1.5335 QUEEN CHARLIE THREE
-1.0525 QUEEN CHARLIE TO
-1.5335 QUEEN CHARLIE TWO
-1.8976 QUEEN DELTA ALPHA
-1.8976 QUEEN DELTA BRAVO
-1.0525 QUEEN DELTA CAPTURES
-1.8976 QUEEN DELTA CHARLIE
-1.8976 QUEEN DELTA ECHO
-1.5335 QUEEN DELTA EIGHT
-1.5335 QUEEN DELTA FIVE
-1.5335 QUEEN DELTA FOUR
-1.8976 QUEEN DELTA FOXTROT
-1.8976 QUEEN DELTA GOLF
-1.8976 QUEEN DELTA HOTEL
-1.5335 QUEEN DELTA ONE
-1.5335 QUEEN DELTA SEVEN
-1.5335 QUEEN DELTA SIX
-1.5335 QUEEN DELTA THREE
-1.0525 QUEEN DELTA TO
-1.5335 QUEEN DELTA TWO
-1.8976 QUEEN ECHO ALPHA
-1.8976 QUEEN ECHO BRAVO
-1.0525 QUEEN ECHO CAPTURES
-1.8976 QUEEN ECHO CHARLIE
-1.8976 QUEEN ECHO DELTA
-1.5335 QUEEN ECHO EIGHT
-1.5335 QUEEN ECHO FIVE
-1.5335 QUEEN ECHO FOUR
-1.8976 QUEEN ECHO FOXTROT
-1.8976 QUEEN ECHO GOLF
-1.8976 QUEEN ECHO HOTEL
-1.5335 QUEEN ECHO ONE
-1.5335 QUEEN ECHO SEVEN
-1.5335 QUEEN ECHO SIX
-1.5335 QUEEN ECHO THREE
-1.0525 QUEEN ECHO TO
-1.5335 QUEEN ECHO TWO
-1.6812 QUEEN EIGHT ALPHA
-1.6812 QUEEN EIGHT BRAVO
-0.7782 QUEEN EIGHT CAPTURES
-1.6812 QUEEN EIGHT CHARLIE
-1.6812 QUEEN EIGHT DELTA
-1.6812 QUEEN EIGHT ECHO
-1.6812 QUEEN EIGHT FOXTROT
-1.6812 QUEEN EIGHT GOLF
-1.6812 QUEEN EIGHT HOTEL
-0.7782 QUEEN EIGHT TO
-1.6812 QUEEN FIVE ALPHA
-1.6812 QUEEN FIVE BRAVO
-0.7782 QUEEN FIVE CAPTURES
-1.6812 QUEEN FIVE CHARLIE
-1.6812 QUEEN FIVE DELTA
-1.6812 QUEEN FIVE ECHO
-1.6812 QUEEN FIVE FOXTROT
-1.6812 QUEEN FIVE GOLF
-1.6812 QUEEN FIVE HOTEL
-0.7782 QUEEN FIVE TO
-1.6812 QUEEN FOUR ALPHA
-1.6812 QUEEN FOUR BRAVO
-0.7782 QUEEN FOUR CAPTURES
-1.6812 QUEEN FOUR CHARLIE
-1.6812 QUEEN FOUR DELTA
-1.6812 QUEEN FOUR ECHO
-1.6812 QUEEN FOUR FOXTROT
-1.6812 QUEEN FOUR GOLF
-1.6812 QUEEN FOUR HOTEL
-0.7782 QUEEN FOUR TO
-1.8976 QUEEN FOXTROT ALPHA
-1.8976 QUEEN FOXTROT BRAVO
-1.0525 QUEEN FOXTROT CAPTURES
-1.8976 QUEEN FOXTROT CHARLIE
-1.8976 QUEEN FOXTROT DELTA
-1.8976 QUEEN FOXTROT ECHO
-1.5335 QUEEN FOXTROT EIGHT
-1.5335 QUEEN FOXTROT FIVE
-1.5335 QUEEN FOXTROT FOUR
-1.8976 QUEEN FOXTROT GOLF
-1.8976 QUEEN FOXTROT HOTEL
-1.5335 QUEEN FOXTROT ONE
-1.5335 QUEEN FOXTROT SEVEN
-1.5335 QUEEN FOXTROT SIX
-1.5335 QUEEN FOXTROT THREE
-1.0525 QUEEN FOXTROT TO
-1.5335 QUEEN FOXTROT TWO
-1.8976 QUEEN GOLF ALPHA
-1.8976 QUEEN GOLF BRAVO
-1.0525 QUEEN GOLF CAPTURES
-1.8976 QUEEN GOLF CHARLIE
-1.8976 QUEEN GOLF DELTA
-1.8976 QUEEN GOLF ECHO
-1.5335 QUEEN GOLF EIGHT
-1.5335 QUEEN GOLF FIVE
-1.5335 QUEEN GOLF FOUR
-1.8976 QUEEN GOLF FOXTROT
-1.8976 QUEEN GOLF HOTEL
-1.5335 QUEEN GOLF ONE
-1.5335 QUEEN GOLF SEVEN
-1.5335 QUEEN GOLF SIX
-1.5335 QUEEN GOLF THREE
-1.0525 QUEEN GOLF TO
-1.5335 QUEEN GOLF TWO
-1.8976 QUEEN HOTEL ALPHA
-1.8976 QUEEN HOTEL BRAVO
-1.0525 QUEEN HOTEL CAPTURES
-1.8976 QUEEN HOTEL CHARLIE
-1.8976 QUEEN HOTEL DELTA
-1.8976 QUEEN HOTEL ECHO
-1.5335 QUEEN HOTEL EIGHT
-1.5335 QUEEN HOTEL FIVE
-1.5335 QUEEN HOTEL FOUR
-1.8976 QUEEN HOTEL FOXTROT
-1.8976 QUEEN HOTEL GOLF
-1.5335 QUEEN HOTEL ONE
-1.5335 QUEEN HOTEL SEVEN
-1.5335 QUEEN HOTEL SIX
-1.5335 QUEEN HOTEL THREE
-1.0525 QUEEN HOTEL TO
-1.5335 QUEEN HOTEL TWO
-1.6812 QUEEN ONE ALPHA
-1.6812 QUEEN ONE BRAVO
-0.7782 QUEEN ONE CAPTURES
-1.6812 QUEEN ONE CHARLIE
-1.6812 QUEEN ONE DELTA
-1.6812 QUEEN ONE ECHO
-1.6812 QUEEN ONE FOXTROT
-1.6812 QUEEN ONE GOLF
-1.6812 QUEEN ONE HOTEL
-0.7782 QUEEN ONE TO
-1.6812 QUEEN SEVEN ALPHA
-1.6812 QUEEN SEVEN BRAVO
-0.7782 QUEEN SEVEN CAPTURES
-1.6812 QUEEN SEVEN CHARLIE
-1.6812 QUEEN SEVEN DELTA
-1.6812 QUEEN SEVEN ECHO
-1.6812 QUEEN SEVEN FOXTROT
-1.6812 QUEEN SEVEN GOLF
-1.6812 QUEEN SEVEN HOTEL
-0.7782 QUEEN SEVEN TO
-1.6812 QUEEN SIX ALPHA
-1.6812 QUEEN SIX BRAVO
-0.7782 QUEEN SIX CAPTURES
-1.6812 QUEEN SIX CHARLIE
-1.6812 QUEEN SIX DELTA
-1.6812 QUEEN SIX ECHO
-1.6812 QUEEN SIX FOXTROT
-1.6812 QUEEN SIX GOLF
-1.6812 QUEEN SIX HOTEL
-0.7782 QUEEN SIX TO
-1.6812 QUEEN THREE ALPHA
-1.6812 QUEEN THREE BRAVO
-0.7782 QUEEN THREE CAPTURES
-1.6812 QUEEN THREE CHARLIE
-1.6812 QUEEN THREE DELTA
-1.6812 QUEEN THREE ECHO
-1.6812 QUEEN THREE FOXTROT
-1.6812 QUEEN THREE GOLF
-1.6812 QUEEN THREE HOTEL
-0.7782 QUEEN THREE TO
-1.2041 QUEEN TO ALPHA
-1.2041 QUEEN TO BRAVO
-1.2041 QUEEN TO CHARLIE
-1.2041 QUEEN TO DELTA
-1.2041 QUEEN TO ECHO
-1.2041 QUEEN TO FOXTROT
-1.2041 QUEEN TO GOLF
-1.2041 QUEEN TO HOTEL
-1.6812 QUEEN TWO ALPHA
-1.6812 QUEEN TWO BRAVO
-0.7782 QUEEN TWO CAPTURES
-1.6812 QUEEN TWO CHARLIE
-1.6812 QUEEN TWO DELTA
-1.6812 QUEEN TWO ECHO
-1.6812 QUEEN TWO FOXTROT
-1.6812 QUEEN TWO GOLF
-1.6812 QUEEN TWO HOTEL
-0.7782 QUEEN TWO TO
-0.3010 QUEENSIDE CASTLING </s>
-1.8976 ROOK ALPHA BRAVO
-1.0525 ROOK ALPHA CAPTURES
-1.8976 ROOK ALPHA CHARLIE
-1.8976 ROOK ALPHA DELTA
-1.8976 ROOK ALPHA ECHO
-1.5335 ROOK ALPHA EIGHT
-1.5335 ROOK ALPHA FIVE
-1.5335 ROOK ALPHA FOUR
-1.8976 ROOK ALPHA FOXTROT
-1.8976 ROOK ALPHA GOLF
-1.8976 ROOK ALPHA HOTEL
-1.5335 ROOK ALPHA ONE
-1.5335 ROOK ALPHA SEVEN
-1.5335 ROOK ALPHA SIX
-1.5335 ROOK ALPHA THREE
-1.0525 ROOK ALPHA TO
-1.5335 ROOK ALPHA TWO
-1.8976 ROOK BRAVO ALPHA
-1.0525 ROOK BRAVO CAPTURES
-1.8976 ROOK BRAVO CHARLIE
-1.8976 ROOK BRAVO DELTA
-1.8976 ROOK BRAVO ECHO
-1.5335 ROOK BRAVO EIGHT
-1.5335 ROOK BRAVO FIVE
-1.5335 ROOK BRAVO FOUR
-1.8976 ROOK BRAVO FOXTROT
-1.8976 ROOK BRAVO GOLF
-1.8976 ROOK BRAVO HOTEL
-1.5335 ROOK BRAVO ONE
-1.5335 ROOK BRAVO SEVEN
-1.5335 ROOK BRAVO SIX
-1.5335 ROOK BRAVO THREE
-1.0525 ROOK BRAVO TO
-1.5335 ROOK BRAVO TWO
-1.2041 ROOK CAPTURES ALPHA
-1.2041 ROOK CAPTURES BRAVO
-1.2041 ROOK CAPTURES CHARLIE
-1.2041 ROOK CAPTURES DELTA
-1.2041 ROOK CAPTURES ECHO
-1.2041 ROOK CAPTURES FOXTROT
-1.2041 ROOK CAPTURES GOLF
-1.2041 ROOK CAPTURES HOTEL
-1.8976 ROOK CHARLIE ALPHA
-1.8976 ROOK CHARLIE BRAVO
-1.0525 ROOK CHARLIE CAPTURES
-1.8976 ROOK CHARLIE DELTA
-1.8976 ROOK CHARLIE ECHO
-1.5335 ROOK CHARLIE EIGHT
-1.5335 ROOK CHARLIE FIVE
-1.5335 ROOK CHARLIE FOUR
-1.8976 ROOK CHARLIE FOXTROT
-1.8976 ROOK CHARLIE GOLF
-1.8976 ROOK CHARLIE HOTEL
-1.5335 ROOK CHARLIE ONE
-1.5335 ROOK CHARLIE SEVEN
-1.5335 ROOK CHARLIE SIX
-1.5335 ROOK CHARLIE THREE
-1.0525 ROOK CHARLIE TO
-1.5335 ROOK CHARLIE TWO
-1.8976 ROOK DELTA ALPHA
-1.8976 ROOK DELTA BRAVO
-1.0525 ROOK DELTA CAPTURES
-1.8976 ROOK DELTA CHARLIE
-1.8976 ROOK DELTA ECHO
-1.5335 ROOK DELTA EIGHT
-1.5335 ROOK DELTA FIVE
-1.5335 ROOK DELTA FOUR
-1.8976 ROOK DELTA FOXTROT
-1.8976 ROOK DELTA GOLF
-1.8976 ROOK DELTA HOTEL
-1.5335 ROOK DELTA ONE
-1.5335 ROOK DELTA SEVEN
-1.5335 ROOK DELTA SIX
-1.5335 ROOK DELTA THREE
-1.0525 ROOK DELTA TO
-1.5335 ROOK DELTA TWO
-1.8976 ROOK ECHO ALPHA
-1.8976 ROOK ECHO BRAVO
-1.0525 ROOK ECHO CAPTURES
-1.8976 ROOK ECHO CHARLIE
-1.8976 ROOK ECHO DELTA
-1.5335 ROOK ECHO EIGHT
-1.5335 ROOK ECHO FIVE
-1.5335 ROOK ECHO FOUR
-1.8976 ROOK ECHO FOXTROT
-1.8976 ROOK ECHO GOLF
-1.8976 ROOK ECHO HOTEL
-1.5335 ROOK ECHO ONE
-1.5335 ROOK ECHO SEVEN
-1.5335 ROOK ECHO SIX
-1.5335 ROOK ECHO THREE
-1.0525 ROOK ECHO TO
-1.5335 ROOK ECHO TWO
-1.6812 ROOK EIGHT ALPHA
-1.6812 ROOK EIGHT BRAVO
-0.7782 ROOK EIGHT CAPTURES
-1.6812 ROOK EIGHT CHARLIE
-1.6812 ROOK EIGHT DELTA
-1.6812 ROOK EIGHT ECHO
-1.6812 ROOK EIGHT FOXTROT
-1.6812 ROOK EIGHT GOLF
-1.6812 ROOK EIGHT HOTEL
-0.7782 ROOK EIGHT TO
-1.6812 ROOK FIVE ALPHA
-1.6812 ROOK FIVE BRAVO
-0.7782 ROOK FIVE CAPTURES
-1.6812 ROOK FIVE CHARLIE
-1.6812 ROOK FIVE DELTA
-1.6812 ROOK FIVE ECHO
-1.6812 ROOK FIVE FOXTROT
-1.6812 ROOK FIVE GOLF
-1.6812 ROOK FIVE HOTEL
-0.7782 ROOK FIVE TO
-1.6812 ROOK FOUR ALPHA
-1.6812 ROOK FOUR BRAVO
-0.7782 ROOK FOUR CAPTURES
-1.6812 ROOK FOUR CHARLIE
-1.6812 ROOK FOUR DELTA
-1.6812 ROOK FOUR ECHO
-1.6812 ROOK FOUR FOXTROT
-1.6812 ROOK FOUR GOLF
-1.6812 ROOK FOUR HOTEL
-0.7782 ROOK FOUR TO
-1.8976 ROOK FOXTROT ALPHA
-1.8976 ROOK FOXTROT BRAVO
-1.0525 ROOK FOXTROT CAPTURES
-1.8976 ROOK FOXTROT CHARLIE
-1.8976 ROOK FOXTROT DELTA
-1.8976 ROOK FOXTROT ECHO
-1.5335 ROOK FOXTROT EIGHT
-1.5335 ROOK FOXTROT FIVE
-1.5335 ROOK FOXTROT FOUR
-1.8976 ROOK FOXTROT GOLF
-1.8976 ROOK FOXTROT HOTEL
-1.5335 ROOK FOXTROT ONE
-1.5335 ROOK FOXTROT SEVEN
-1.5335 ROOK FOXTROT SIX
-1.5335 ROOK FOXTROT THREE
-1.0525 ROOK FOXTROT TO
-1.5335 ROOK FOXTROT TWO
-1.8976 ROOK GOLF ALPHA
-1.8976 ROOK GOLF BRAVO
-1.0525 ROOK GOLF CAPTURES
-1.8976 ROOK GOLF CHARLIE
-1.8976 ROOK GOLF DELTA
-1.8976 ROOK GOLF ECHO
-1.5335 ROOK GOLF EIGHT
-1.5335 ROOK GOLF FIVE
-1.5335 ROOK GOLF FOUR
-1.8976 ROOK GOLF FOXTROT
-1.8976 ROOK GOLF HOTEL
-1.5335 ROOK GOLF ONE
-1.5335 ROOK GOLF SEVEN
-1.5335 ROOK GOLF SIX
-1.5335 ROOK GOLF THREE
-1.0525 ROOK GOLF TO
-1.5335 ROOK GOLF TWO
-1.8976 ROOK HOTEL ALPHA
-1.8976 ROOK HOTEL BRAVO
-1.0525 ROOK HOTEL CAPTURES
-1.8976 ROOK HOTEL CHARLIE
-1.8976 ROOK HOTEL DELTA
-1.8976 ROOK HOTEL ECHO
-1.5335 ROOK HOTEL EIGHT
-1.5335 ROOK HOTEL FIVE
-1.5335 ROOK HOTEL FOUR
-1.8976 ROOK HOTEL FOXTROT
-1.8976 ROOK HOTEL GOLF
-1.5335 ROOK HOTEL ONE
-1.5335 ROOK HOTEL SEVEN
-1.5335 ROOK HOTEL SIX
-1.5335 ROOK HOTEL THREE
-1.0525 ROOK HOTEL TO
-1.5335 ROOK HOTEL TWO
-1.6812 ROOK ONE ALPHA
-1.6812 ROOK ONE BRAVO
-0.7782 ROOK ONE CAPTURES
-1.6812 ROOK ONE CHARLIE
-1.6812 ROOK ONE DELTA
-1.6812 ROOK ONE ECHO
-1.6812 ROOK ONE FOXTROT
-1.6812 ROOK ONE GOLF
-1.6812 ROOK ONE HOTEL
-0.7782 ROOK ONE TO
-1.6812 ROOK SEVEN ALPHA
-1.6812 ROOK SEVEN BRAVO
-0.7782 ROOK SEVEN CAPTURES
-1.6812 ROOK SEVEN CHARLIE
-1.6812 ROOK SEVEN DELTA
-1.6812 ROOK SEVEN ECHO
-1.6812 ROOK SEVEN FOXTROT
-1.6812 ROOK SEVEN GOLF
-1.6812 ROOK SEVEN HOTEL
-0.7782 ROOK SEVEN TO
-1.6812 ROOK SIX ALPHA
-1.6812 ROOK SIX BRAVO
-0.7782 ROOK SIX CAPTURES
-1.6812 ROOK SIX CHARLIE
-1.6812 ROOK SIX DELTA
-1.6812 ROOK SIX ECHO
-1.6812 ROOK SIX FOXTROT
-1.6812 ROOK SIX GOLF
-1.6812 ROOK SIX HOTEL
-0.7782 ROOK SIX TO
-1.6812 ROOK THREE ALPHA
-1.6812 ROOK THREE BRAVO
-0.7782 ROOK THREE CAPTURES
-1.6812 ROOK THREE CHARLIE
-1.6812 ROOK THREE DELTA
-1.6812 ROOK THREE ECHO
-1.6812 ROOK THREE FOXTROT
-1.6812 ROOK THREE GOLF
-1.6812 ROOK THREE HOTEL
-0.7782 ROOK THREE TO
-1.2041 ROOK TO ALPHA
-1.2041 ROOK TO BRAVO
-1.2041 ROOK TO CHARLIE
-1.2041 ROOK TO DELTA
-1.2041 ROOK TO ECHO
-1.2041 ROOK TO FOXTROT
-1.2041 ROOK TO GOLF
-1.2041 ROOK TO HOTEL
-1.6812 ROOK TWO ALPHA
-1.6812 ROOK TWO BRAVO
-0.7782 ROOK TWO CAPTURES
-1.6812 ROOK TWO CHARLIE
-1.6812 ROOK TWO DELTA
-1.6812 ROOK TWO ECHO
-1.6812 ROOK TWO FOXTROT
-1.6812 ROOK TWO GOLF
-1.6812 ROOK TWO HOTEL
-0.7782 ROOK TWO TO
-1.1461 SEVEN ALPHA EIGHT
-1.1461 SEVEN ALPHA FIVE
-1.1461 SEVEN ALPHA FOUR
-1.1461 SEVEN ALPHA ONE
-1.1461 SEVEN ALPHA SIX
-1.1461 SEVEN ALPHA THREE
-1.1461 SEVEN ALPHA TWO
-1.1461 SEVEN BRAVO EIGHT
-1.1461 SEVEN BRAVO FIVE
-1.1461 SEVEN BRAVO FOUR
-1.1461 SEVEN BRAVO ONE
-1.1461 SEVEN BRAVO SIX
-1.1461 SEVEN BRAVO THREE
-1.1461 SEVEN BRAVO TWO
-1.2041 SEVEN CAPTURES ALPHA
-1.2041 SEVEN CAPTURES BRAVO
-1.2041 SEVEN CAPTURES CHARLIE
-1.2041 SEVEN CAPTURES DELTA
-1.2041 SEVEN CAPTURES ECHO
-1.2041 SEVEN CAPTURES FOXTROT
-1.2041 SEVEN CAPTURES GOLF
-1.2041 SEVEN CAPTURES HOTEL
-1.1461 SEVEN CHARLIE EIGHT
-1.1461 SEVEN CHARLIE FIVE
-1.1461 SEVEN CHARLIE FOUR
-1.1461 SEVEN CHARLIE ONE
-1.1461 SEVEN CHARLIE SIX
-1.1461 SEVEN CHARLIE THREE
-1.1461 SEVEN CHARLIE TWO
-0.3010 SEVEN CHECK </s>
-0.3010 SEVEN CHECKMATE </s>
-1.1461 SEVEN DELTA EIGHT
-1.1461 SEVEN DELTA FIVE
-1.1461 SEVEN DELTA FOUR
-1.1461 SEVEN DELTA ONE
-1.1461 SEVEN DELTA SIX
-1.1461 SEVEN DELTA THREE
-1.1461 SEVEN DELTA TWO
-1.1461 SEVEN ECHO EIGHT
-1.1461 SEVEN ECHO FIVE
-1.1461 SEVEN ECHO FOUR
-1.1461 SEVEN ECHO ONE
-1.1461 SEVEN ECHO SIX
-1.1461 SEVEN ECHO THREE
-1.1461 SEVEN ECHO TWO
-1.1461 SEVEN FOXTROT EIGHT
-1.1461 SEVEN FOXTROT FIVE
-1.1461 SEVEN FOXTROT FOUR
-1.1461 SEVEN FOXTROT ONE
-1.1461 SEVEN FOXTROT SIX
-1.1461 SEVEN FOXTROT THREE
-1.1461 SEVEN FOXTROT TWO
-1.1461 SEVEN GOLF EIGHT
-1.1461 SEVEN GOLF FIVE
-1.1461 SEVEN GOLF FOUR
-1.1461 SEVEN GOLF ONE
-1.1461 SEVEN GOLF SIX
-1.1461 SEVEN GOLF THREE
-1.1461 SEVEN GOLF TWO
-1.1461 SEVEN HOTEL EIGHT
-1.1461 SEVEN HOTEL FIVE
-1.1461 SEVEN HOTEL FOUR
-1.1461 SEVEN HOTEL ONE
-1.1461 SEVEN HOTEL SIX
-1.1461 SEVEN HOTEL THREE
-1.1461 SEVEN HOTEL TWO
-0.3010 SEVEN PROMOTE TO
-1.2041 SEVEN TO ALPHA
-1.2041 SEVEN TO BRAVO
-1.2041 SEVEN TO CHARLIE
-1.2041 SEVEN TO DELTA
-1.2041 SEVEN TO ECHO
-1.2041 SEVEN TO FOXTROT
-1.2041 SEVEN TO GOLF
-1.2041 SEVEN TO HOTEL
-1.1461 SIX ALPHA EIGHT
-1.1461 SIX ALPHA FIVE
-1.1461 SIX ALPHA FOUR
-1.1461 SIX ALPHA ONE
-1.1461 SIX ALPHA SEVEN
-1.1461 SIX ALPHA THREE
-1.1461 SIX ALPHA TWO
-1.1461 SIX BRAVO EIGHT
-1.1461 SIX BRAVO FIVE
-1.1461 SIX BRAVO FOUR
-1.1461 SIX BRAVO ONE
-1.1461 SIX BRAVO SEVEN
-1.1461 SIX BRAVO THREE
-1.1461 SIX BRAVO TWO
-1.2041 SIX CAPTURES ALPHA
-1.2041 SIX CAPTURES BRAVO
-1.2041 SIX CAPTURES CHARLIE
-1.2041 SIX CAPTURES DELTA
-1.2041 SIX CAPTURES ECHO
-1.2041 SIX CAPTURES FOXTROT
-1.2041 SIX CAPTURES GOLF
-1.2041 SIX CAPTURES HOTEL
-1.1461 SIX CHARLIE EIGHT
-1.1461 SIX CHARLIE FIVE
-1.1461 SIX CHARLIE FOUR
-1.1461 SIX CHARLIE ONE
-1.1461 SIX CHARLIE SEVEN
-1.1461 SIX CHARLIE THREE
-1.1461 SIX CHARLIE TWO
-0.3010 SIX CHECK </s>
-0.3010 SIX CHECKMATE </s>
-1.1461 SIX DELTA EIGHT
-1.1461 SIX DELTA FIVE
-1.1461 SIX DELTA FOUR
-1.1461 SIX DELTA ONE
-1.1461 SIX DELTA SEVEN
-1.1461 SIX DELTA THREE
-1.1461 SIX DELTA TWO
-1.1461 SIX ECHO EIGHT
-1.1461 SIX ECHO FIVE
-1.1461 SIX ECHO FOUR
-1.1461 SIX ECHO ONE
-1.1461 SIX ECHO SEVEN
-1.1461 SIX ECHO THREE
-1.1461 SIX ECHO TWO
-1.1461 SIX FOXTROT EIGHT
-1.1461 SIX FOXTROT FIVE
-1.1461 SIX FOXTROT FOUR
-1.1461 SIX FOXTROT ONE
-1.1461 SIX FOXTROT SEVEN
-1.1461 SIX FOXTROT THREE
-1.1461 SIX FOXTROT TWO
-1.1461 SIX GOLF EIGHT
-1.1461 SIX GOLF FIVE
-1.1461 SIX GOLF FOUR
-1.1461 SIX GOLF ONE
-1.1461 SIX GOLF SEVEN
-1.1461 SIX GOLF THREE
-1.1461 SIX GOLF TWO
-1.1461 SIX HOTEL EIGHT
-1.1461 SIX HOTEL FIVE
-1.1461 SIX HOTEL FOUR
-1.1461 SIX HOTEL ONE
-1.1461 SIX HOTEL SEVEN
-1.1461 SIX HOTEL THREE
-1.1461 SIX HOTEL TWO
-0.3010 SIX PROMOTE TO
-1.2041 SIX TO ALPHA
-1.2041 SIX TO BRAVO
-1.2041 SIX TO CHARLIE
-1.2041 SIX TO DELTA
-1.2041 SIX TO ECHO
-1.2041 SIX TO FOXTROT
-1.2041 SIX TO GOLF
-1.2041 SIX TO HOTEL
-1.1461 THREE ALPHA EIGHT
-1.1461 THREE ALPHA FIVE
-1.1461 THREE ALPHA FOUR
-1.1461 THREE ALPHA ONE
-1.1461 THREE ALPHA SEVEN
-1.1461 THREE ALPHA SIX
-1.1461 THREE ALPHA TWO
-1.1461 THREE BRAVO EIGHT
-1.1461 THREE BRAVO FIVE
-1.1461 THREE BRAVO FOUR
-1.1461 THREE BRAVO ONE
-1.1461 THREE BRAVO SEVEN
-1.1461 THREE BRAVO SIX
-1.1461 THREE BRAVO TWO
-1.2041 THREE CAPTURES ALPHA
-1.2041 THREE CAPTURES BRAVO
-1.2041 THREE CAPTURES CHARLIE
-1.2041 THREE CAPTURES DELTA
-1.2041 THREE CAPTURES ECHO
-1.2041 THREE CAPTURES FOXTROT
-1.2041 THREE CAPTURES GOLF
-1.2041 THREE CAPTURES HOTEL
-1.1461 THREE CHARLIE EIGHT
-1.1461 THREE CHARLIE FIVE
-1.1461 THREE CHARLIE FOUR
-1.1461 THREE CHARLIE ONE
-1.1461 THREE CHARLIE SEVEN
-1.1461 THREE CHARLIE SIX
-1.1461 THREE CHARLIE TWO
-0.3010 THREE CHECK </s>
-0.3010 THREE CHECKMATE </s>
-1.1461 THREE DELTA EIGHT
-1.1461 THREE DELTA FIVE
-1.1461 THREE DELTA FOUR
-1.1461 THREE DELTA ONE
-1.1461 THREE DELTA SEVEN
-1.1461 THREE DELTA SIX
-1.1461 THREE DELTA TWO
-1.1461 THREE ECHO EIGHT
-1.1461 THREE ECHO FIVE
-1.1461 THREE ECHO FOUR
-1.1461 THREE ECHO ONE
-1.1461 THREE ECHO SEVEN
-1.1461 THREE ECHO SIX
-1.1461 THREE ECHO TWO
-1.1461 THREE FOXTROT EIGHT
-1.1461 THREE FOXTROT FIVE
-1.1461 THREE FOXTROT FOUR
-1.1461 THREE FOXTROT ONE
-1.1461 THREE FOXTROT SEVEN
-1.1461 THREE FOXTROT SIX
-1.1461 THREE FOXTROT TWO
-1.1461 THREE GOLF EIGHT
-1.1461 THREE GOLF FIVE
-1.1461 THREE GOLF FOUR
-1.1461 THREE GOLF ONE
-1.1461 THREE GOLF SEVEN
-1.1461 THREE GOLF SIX
-1.1461 THREE GOLF TWO
-1.1461 THREE HOTEL EIGHT
-1.1461 THREE HOTEL FIVE
-1.1461 THREE HOTEL FOUR
-1.1461 THREE HOTEL ONE
-1.1461 THREE HOTEL SEVEN
-1.1461 THREE HOTEL SIX
-1.1461 THREE HOTEL TWO
-0.3010 THREE PROMOTE TO
-1.2041 THREE TO ALPHA
-1.2041 THREE TO BRAVO
-1.2041 THREE TO CHARLIE
-1.2041 THREE TO DELTA
-1.2041 THREE TO ECHO
-1.2041 THREE TO FOXTROT
-1.2041 THREE TO GOLF
-1.2041 THREE TO HOTEL
-1.2041 TO ALPHA EIGHT
-1.2041 TO ALPHA FIVE
-1.2041 TO ALPHA FOUR
-1.2041 TO ALPHA ONE
-1.2041 TO ALPHA SEVEN
-1.2041 TO ALPHA SIX
-1.2041 TO ALPHA THREE
-1.2041 TO ALPHA TWO
-0.3010 TO BISHOP </s>
-1.2041 TO BRAVO EIGHT
-1.2041 TO BRAVO FIVE
-1.2041 TO BRAVO FOUR
-1.2041 TO BRAVO ONE
-1.2041 TO BRAVO SEVEN
-1.2041 TO BRAVO SIX
-1.2041 TO BRAVO THREE
-1.2041 TO BRAVO TWO
-1.2041 TO CHARLIE EIGHT
-1.2041 TO CHARLIE FIVE
-1.2041 TO CHARLIE FOUR
-1.2041 TO CHARLIE ONE
-1.2041 TO CHARLIE SEVEN
-1.2041 TO CHARLIE SIX
-1.2041 TO CHARLIE THREE
-1.2041 TO CHARLIE TWO
-1.2041 TO DELTA EIGHT
-1.2041 TO DELTA FIVE
-1.2041 TO DELTA FOUR
-1.2041 TO DELTA ONE
-1.2041 TO DELTA SEVEN
-1.2041 TO DELTA SIX
-1.2041 TO DELTA THREE
-1.2041 TO DELTA TWO
-1.2041 TO ECHO EIGHT
-1.2041 TO ECHO FIVE
-1.2041 TO ECHO FOUR
-1.2041 TO ECHO ONE
-1.2041 TO ECHO SEVEN
-1.2041 TO ECHO SIX
-1.2041 TO ECHO THREE
-1.2041 TO ECHO TWO
-1.2041 TO FOXTROT EIGHT
-1.2041 TO FOXTROT FIVE
-1.2041 TO FOXTROT FOUR
-1.2041 TO FOXTROT ONE
-1.2041 TO FOXTROT SEVEN
-1.2041 TO FOXTROT SIX
-1.2041 TO FOXTROT THREE
-1.2041 TO FOXTROT TWO
-1.2041 TO GOLF EIGHT
-1.2041 TO GOLF FIVE
-1.2041 TO GOLF FOUR
-1.2041 TO GOLF ONE
-1.2041 TO GOLF SEVEN
-1.2041 TO GOLF SIX
-1.2041 TO GOLF THREE
-1.2041 TO GOLF TWO
-1.2041 TO HOTEL EIGHT
-1.2041 TO HOTEL FIVE
-1.2041 TO HOTEL FOUR
-1.2041 TO HOTEL ONE
-1.2041 TO HOTEL SEVEN
-1.2041 TO HOTEL SIX
-1.2041 TO HOTEL THREE
-1.2041 TO HOTEL TWO
-0.3010 TO KNIGHT </s>
-0.3010 TO QUEEN </s>
-0.3010 TO ROOK </s>
-1.1461 TWO ALPHA EIGHT
-1.1461 TWO ALPHA FIVE
-1.1461 TWO ALPHA FOUR
-1.1461 TWO ALPHA ONE
-1.1461 TWO ALPHA SEVEN
-1.1461 TWO ALPHA SIX
-1.1461 TWO ALPHA THREE
-1.1461 TWO BRAVO EIGHT
-1.1461 TWO BRAVO FIVE
-1.1461 TWO BRAVO FOUR
-1.1461 TWO BRAVO ONE
-1.1461 TWO BRAVO SEVEN
-1.1461 TWO BRAVO SIX
-1.1461 TWO BRAVO THREE
-1.2041 TWO CAPTURES ALPHA
-1.2041 TWO CAPTURES BRAVO
-1.2041 TWO CAPTURES CHARLIE
-1.2041 TWO CAPTURES DELTA
-1.2041 TWO CAPTURES ECHO
-1.2041 TWO CAPTURES FOXTROT
-1.2041 TWO CAPTURES GOLF
-1.2041 TWO CAPTURES HOTEL
-1.1461 TWO CHARLIE EIGHT
-1.1461 TWO CHARLIE FIVE
-1.1461 TWO CHARLIE FOUR
-1.1461 TWO CHARLIE ONE
-1.1461 TWO CHARLIE SEVEN
-1.1461 TWO CHARLIE SIX
-1.1461 TWO CHARLIE THREE
-0.3010 TWO CHECK </s>
-0.3010 TWO CHECKMATE </s>
-1.1461 TWO DELTA EIGHT
-1.1461 TWO DELTA FIVE
-1.1461 TWO DELTA FOUR
-1.1461 TWO DELTA ONE
-1.1461 TWO DELTA SEVEN
-1.1461 TWO DELTA SIX
-1.1461 TWO DELTA THREE
-1.1461 TWO ECHO EIGHT
-1.1461 TWO ECHO FIVE
-1.1461 TWO ECHO FOUR
-1.1461 TWO ECHO ONE
-1.1461 TWO ECHO SEVEN
-1.1461 TWO ECHO SIX
-1.1461 TWO ECHO THREE
-1.1461 TWO FOXTROT EIGHT
-1.1461 TWO FOXTROT FIVE
-1.1461 TWO FOXTROT FOUR
-1.1461 TWO FOXTROT ONE
-1.1461 TWO FOXTROT SEVEN
-1.1461 TWO FOXTROT SIX
-1.1461 TWO FOXTROT THREE
-1.1461 TWO GOLF EIGHT
-1.1461 TWO GOLF FIVE
-1.1461 TWO GOLF FOUR
-1.1461 TWO GOLF ONE
-1.1461 TWO GOLF SEVEN
-1.1461 TWO GOLF SIX
-1.1461 TWO GOLF THREE
-1.1461 TWO HOTEL EIGHT
-1.1461 TWO HOTEL FIVE
-1.1461 TWO HOTEL FOUR
-1.1461 TWO HOTEL ONE
-1.1461 TWO HOTEL SEVEN
-1.1461 TWO HOTEL SIX
-1.1461 TWO HOTEL THREE
-0.3010 TWO PROMOTE TO
-1.2041 TWO TO ALPHA
-1.2041 TWO TO BRAVO
-1.2041 TWO TO CHARLIE
-1.2041 TWO TO DELTA
-1.2041 TWO TO ECHO
-1.2041 TWO TO FOXTROT
-1.2041 TWO TO GOLF
-1.2041 TWO TO HOTEL

\end\
